<?xml version="1.0" encoding="UTF-8" standalone="yes"?>
<PMML xmlns="http://www.dmg.org/PMML-4_4" xmlns:data="http://jpmml.org/jpmml-model/InlineTable" version="4.4">
	<Header>
		<Application name="JPMML-SkLearn" version="1.6.18"/>
		<Timestamp>2021-05-17T10:21:07Z</Timestamp>
	</Header>
	<MiningBuildTask>
		<Extension>PMMLPipeline(steps=[('estimator', SVC(decision_function_shape='ovo', gamma=0.15378700499807768))])</Extension>
	</MiningBuildTask>
	<DataDictionary>
		<DataField name="y" optype="categorical" dataType="double">
			<Value value="-1.0"/>
			<Value value="1.0"/>
		</DataField>
		<DataField name="x13" optype="continuous" dataType="double"/>
		<DataField name="x14" optype="continuous" dataType="double"/>
		<DataField name="x15" optype="continuous" dataType="double"/>
		<DataField name="x16" optype="continuous" dataType="double"/>
		<DataField name="x34" optype="continuous" dataType="double"/>
		<DataField name="x35" optype="continuous" dataType="double"/>
		<DataField name="x36" optype="continuous" dataType="double"/>
		<DataField name="x37" optype="continuous" dataType="double"/>
		<DataField name="x38" optype="continuous" dataType="double"/>
		<DataField name="x39" optype="continuous" dataType="double"/>
		<DataField name="x40" optype="continuous" dataType="double"/>
		<DataField name="x41" optype="continuous" dataType="double"/>
		<DataField name="x42" optype="continuous" dataType="double"/>
		<DataField name="x43" optype="continuous" dataType="double"/>
		<DataField name="x44" optype="continuous" dataType="double"/>
		<DataField name="x45" optype="continuous" dataType="double"/>
		<DataField name="x46" optype="continuous" dataType="double"/>
		<DataField name="x47" optype="continuous" dataType="double"/>
		<DataField name="x48" optype="continuous" dataType="double"/>
		<DataField name="x49" optype="continuous" dataType="double"/>
		<DataField name="x50" optype="continuous" dataType="double"/>
		<DataField name="x51" optype="continuous" dataType="double"/>
		<DataField name="x52" optype="continuous" dataType="double"/>
		<DataField name="x61" optype="continuous" dataType="double"/>
		<DataField name="x62" optype="continuous" dataType="double"/>
		<DataField name="x63" optype="continuous" dataType="double"/>
		<DataField name="x64" optype="continuous" dataType="double"/>
		<DataField name="x65" optype="continuous" dataType="double"/>
		<DataField name="x66" optype="continuous" dataType="double"/>
		<DataField name="x67" optype="continuous" dataType="double"/>
		<DataField name="x68" optype="continuous" dataType="double"/>
		<DataField name="x69" optype="continuous" dataType="double"/>
		<DataField name="x70" optype="continuous" dataType="double"/>
		<DataField name="x71" optype="continuous" dataType="double"/>
		<DataField name="x72" optype="continuous" dataType="double"/>
		<DataField name="x73" optype="continuous" dataType="double"/>
		<DataField name="x74" optype="continuous" dataType="double"/>
		<DataField name="x75" optype="continuous" dataType="double"/>
		<DataField name="x76" optype="continuous" dataType="double"/>
		<DataField name="x77" optype="continuous" dataType="double"/>
		<DataField name="x78" optype="continuous" dataType="double"/>
		<DataField name="x79" optype="continuous" dataType="double"/>
		<DataField name="x80" optype="continuous" dataType="double"/>
		<DataField name="x81" optype="continuous" dataType="double"/>
		<DataField name="x82" optype="continuous" dataType="double"/>
		<DataField name="x88" optype="continuous" dataType="double"/>
		<DataField name="x89" optype="continuous" dataType="double"/>
		<DataField name="x90" optype="continuous" dataType="double"/>
		<DataField name="x91" optype="continuous" dataType="double"/>
		<DataField name="x92" optype="continuous" dataType="double"/>
		<DataField name="x93" optype="continuous" dataType="double"/>
		<DataField name="x94" optype="continuous" dataType="double"/>
		<DataField name="x95" optype="continuous" dataType="double"/>
		<DataField name="x96" optype="continuous" dataType="double"/>
		<DataField name="x97" optype="continuous" dataType="double"/>
		<DataField name="x98" optype="continuous" dataType="double"/>
		<DataField name="x99" optype="continuous" dataType="double"/>
		<DataField name="x100" optype="continuous" dataType="double"/>
		<DataField name="x101" optype="continuous" dataType="double"/>
		<DataField name="x102" optype="continuous" dataType="double"/>
		<DataField name="x103" optype="continuous" dataType="double"/>
		<DataField name="x104" optype="continuous" dataType="double"/>
		<DataField name="x105" optype="continuous" dataType="double"/>
		<DataField name="x106" optype="continuous" dataType="double"/>
		<DataField name="x107" optype="continuous" dataType="double"/>
		<DataField name="x108" optype="continuous" dataType="double"/>
		<DataField name="x109" optype="continuous" dataType="double"/>
		<DataField name="x110" optype="continuous" dataType="double"/>
		<DataField name="x116" optype="continuous" dataType="double"/>
		<DataField name="x117" optype="continuous" dataType="double"/>
		<DataField name="x118" optype="continuous" dataType="double"/>
		<DataField name="x119" optype="continuous" dataType="double"/>
		<DataField name="x120" optype="continuous" dataType="double"/>
		<DataField name="x121" optype="continuous" dataType="double"/>
		<DataField name="x122" optype="continuous" dataType="double"/>
		<DataField name="x123" optype="continuous" dataType="double"/>
		<DataField name="x124" optype="continuous" dataType="double"/>
		<DataField name="x125" optype="continuous" dataType="double"/>
		<DataField name="x126" optype="continuous" dataType="double"/>
		<DataField name="x127" optype="continuous" dataType="double"/>
		<DataField name="x128" optype="continuous" dataType="double"/>
		<DataField name="x129" optype="continuous" dataType="double"/>
		<DataField name="x130" optype="continuous" dataType="double"/>
		<DataField name="x131" optype="continuous" dataType="double"/>
		<DataField name="x132" optype="continuous" dataType="double"/>
		<DataField name="x133" optype="continuous" dataType="double"/>
		<DataField name="x134" optype="continuous" dataType="double"/>
		<DataField name="x135" optype="continuous" dataType="double"/>
		<DataField name="x136" optype="continuous" dataType="double"/>
		<DataField name="x137" optype="continuous" dataType="double"/>
		<DataField name="x138" optype="continuous" dataType="double"/>
		<DataField name="x139" optype="continuous" dataType="double"/>
		<DataField name="x143" optype="continuous" dataType="double"/>
		<DataField name="x144" optype="continuous" dataType="double"/>
		<DataField name="x145" optype="continuous" dataType="double"/>
		<DataField name="x146" optype="continuous" dataType="double"/>
		<DataField name="x147" optype="continuous" dataType="double"/>
		<DataField name="x148" optype="continuous" dataType="double"/>
		<DataField name="x149" optype="continuous" dataType="double"/>
		<DataField name="x150" optype="continuous" dataType="double"/>
		<DataField name="x151" optype="continuous" dataType="double"/>
		<DataField name="x152" optype="continuous" dataType="double"/>
		<DataField name="x153" optype="continuous" dataType="double"/>
		<DataField name="x154" optype="continuous" dataType="double"/>
		<DataField name="x155" optype="continuous" dataType="double"/>
		<DataField name="x156" optype="continuous" dataType="double"/>
		<DataField name="x157" optype="continuous" dataType="double"/>
		<DataField name="x158" optype="continuous" dataType="double"/>
		<DataField name="x159" optype="continuous" dataType="double"/>
		<DataField name="x160" optype="continuous" dataType="double"/>
		<DataField name="x161" optype="continuous" dataType="double"/>
		<DataField name="x162" optype="continuous" dataType="double"/>
		<DataField name="x163" optype="continuous" dataType="double"/>
		<DataField name="x164" optype="continuous" dataType="double"/>
		<DataField name="x165" optype="continuous" dataType="double"/>
		<DataField name="x166" optype="continuous" dataType="double"/>
		<DataField name="x167" optype="continuous" dataType="double"/>
		<DataField name="x168" optype="continuous" dataType="double"/>
		<DataField name="x171" optype="continuous" dataType="double"/>
		<DataField name="x172" optype="continuous" dataType="double"/>
		<DataField name="x173" optype="continuous" dataType="double"/>
		<DataField name="x174" optype="continuous" dataType="double"/>
		<DataField name="x175" optype="continuous" dataType="double"/>
		<DataField name="x176" optype="continuous" dataType="double"/>
		<DataField name="x177" optype="continuous" dataType="double"/>
		<DataField name="x178" optype="continuous" dataType="double"/>
		<DataField name="x179" optype="continuous" dataType="double"/>
		<DataField name="x180" optype="continuous" dataType="double"/>
		<DataField name="x181" optype="continuous" dataType="double"/>
		<DataField name="x182" optype="continuous" dataType="double"/>
		<DataField name="x183" optype="continuous" dataType="double"/>
		<DataField name="x184" optype="continuous" dataType="double"/>
		<DataField name="x185" optype="continuous" dataType="double"/>
		<DataField name="x186" optype="continuous" dataType="double"/>
		<DataField name="x187" optype="continuous" dataType="double"/>
		<DataField name="x188" optype="continuous" dataType="double"/>
		<DataField name="x189" optype="continuous" dataType="double"/>
		<DataField name="x190" optype="continuous" dataType="double"/>
		<DataField name="x191" optype="continuous" dataType="double"/>
		<DataField name="x192" optype="continuous" dataType="double"/>
		<DataField name="x193" optype="continuous" dataType="double"/>
		<DataField name="x194" optype="continuous" dataType="double"/>
		<DataField name="x195" optype="continuous" dataType="double"/>
		<DataField name="x196" optype="continuous" dataType="double"/>
		<DataField name="x197" optype="continuous" dataType="double"/>
		<DataField name="x198" optype="continuous" dataType="double"/>
		<DataField name="x199" optype="continuous" dataType="double"/>
		<DataField name="x200" optype="continuous" dataType="double"/>
		<DataField name="x201" optype="continuous" dataType="double"/>
		<DataField name="x202" optype="continuous" dataType="double"/>
		<DataField name="x203" optype="continuous" dataType="double"/>
		<DataField name="x204" optype="continuous" dataType="double"/>
		<DataField name="x205" optype="continuous" dataType="double"/>
		<DataField name="x206" optype="continuous" dataType="double"/>
		<DataField name="x207" optype="continuous" dataType="double"/>
		<DataField name="x208" optype="continuous" dataType="double"/>
		<DataField name="x209" optype="continuous" dataType="double"/>
		<DataField name="x210" optype="continuous" dataType="double"/>
		<DataField name="x211" optype="continuous" dataType="double"/>
		<DataField name="x212" optype="continuous" dataType="double"/>
		<DataField name="x213" optype="continuous" dataType="double"/>
		<DataField name="x214" optype="continuous" dataType="double"/>
		<DataField name="x215" optype="continuous" dataType="double"/>
		<DataField name="x216" optype="continuous" dataType="double"/>
		<DataField name="x217" optype="continuous" dataType="double"/>
		<DataField name="x218" optype="continuous" dataType="double"/>
		<DataField name="x219" optype="continuous" dataType="double"/>
		<DataField name="x220" optype="continuous" dataType="double"/>
		<DataField name="x221" optype="continuous" dataType="double"/>
		<DataField name="x222" optype="continuous" dataType="double"/>
		<DataField name="x223" optype="continuous" dataType="double"/>
		<DataField name="x224" optype="continuous" dataType="double"/>
		<DataField name="x225" optype="continuous" dataType="double"/>
		<DataField name="x226" optype="continuous" dataType="double"/>
		<DataField name="x227" optype="continuous" dataType="double"/>
		<DataField name="x228" optype="continuous" dataType="double"/>
		<DataField name="x229" optype="continuous" dataType="double"/>
		<DataField name="x230" optype="continuous" dataType="double"/>
		<DataField name="x231" optype="continuous" dataType="double"/>
		<DataField name="x232" optype="continuous" dataType="double"/>
		<DataField name="x233" optype="continuous" dataType="double"/>
		<DataField name="x234" optype="continuous" dataType="double"/>
		<DataField name="x235" optype="continuous" dataType="double"/>
		<DataField name="x236" optype="continuous" dataType="double"/>
		<DataField name="x237" optype="continuous" dataType="double"/>
		<DataField name="x238" optype="continuous" dataType="double"/>
		<DataField name="x239" optype="continuous" dataType="double"/>
		<DataField name="x240" optype="continuous" dataType="double"/>
		<DataField name="x241" optype="continuous" dataType="double"/>
		<DataField name="x242" optype="continuous" dataType="double"/>
		<DataField name="x243" optype="continuous" dataType="double"/>
		<DataField name="x244" optype="continuous" dataType="double"/>
		<DataField name="x245" optype="continuous" dataType="double"/>
		<DataField name="x246" optype="continuous" dataType="double"/>
		<DataField name="x247" optype="continuous" dataType="double"/>
		<DataField name="x248" optype="continuous" dataType="double"/>
		<DataField name="x249" optype="continuous" dataType="double"/>
		<DataField name="x250" optype="continuous" dataType="double"/>
		<DataField name="x251" optype="continuous" dataType="double"/>
		<DataField name="x252" optype="continuous" dataType="double"/>
		<DataField name="x253" optype="continuous" dataType="double"/>
		<DataField name="x254" optype="continuous" dataType="double"/>
		<DataField name="x255" optype="continuous" dataType="double"/>
		<DataField name="x256" optype="continuous" dataType="double"/>
		<DataField name="x257" optype="continuous" dataType="double"/>
		<DataField name="x258" optype="continuous" dataType="double"/>
		<DataField name="x259" optype="continuous" dataType="double"/>
		<DataField name="x260" optype="continuous" dataType="double"/>
		<DataField name="x261" optype="continuous" dataType="double"/>
		<DataField name="x262" optype="continuous" dataType="double"/>
		<DataField name="x263" optype="continuous" dataType="double"/>
		<DataField name="x264" optype="continuous" dataType="double"/>
		<DataField name="x265" optype="continuous" dataType="double"/>
		<DataField name="x266" optype="continuous" dataType="double"/>
		<DataField name="x267" optype="continuous" dataType="double"/>
		<DataField name="x268" optype="continuous" dataType="double"/>
		<DataField name="x269" optype="continuous" dataType="double"/>
		<DataField name="x270" optype="continuous" dataType="double"/>
		<DataField name="x271" optype="continuous" dataType="double"/>
		<DataField name="x272" optype="continuous" dataType="double"/>
		<DataField name="x273" optype="continuous" dataType="double"/>
		<DataField name="x274" optype="continuous" dataType="double"/>
		<DataField name="x275" optype="continuous" dataType="double"/>
		<DataField name="x276" optype="continuous" dataType="double"/>
		<DataField name="x277" optype="continuous" dataType="double"/>
		<DataField name="x278" optype="continuous" dataType="double"/>
		<DataField name="x279" optype="continuous" dataType="double"/>
		<DataField name="x280" optype="continuous" dataType="double"/>
		<DataField name="x281" optype="continuous" dataType="double"/>
		<DataField name="x282" optype="continuous" dataType="double"/>
		<DataField name="x283" optype="continuous" dataType="double"/>
		<DataField name="x284" optype="continuous" dataType="double"/>
		<DataField name="x285" optype="continuous" dataType="double"/>
		<DataField name="x286" optype="continuous" dataType="double"/>
		<DataField name="x287" optype="continuous" dataType="double"/>
		<DataField name="x288" optype="continuous" dataType="double"/>
		<DataField name="x289" optype="continuous" dataType="double"/>
		<DataField name="x290" optype="continuous" dataType="double"/>
		<DataField name="x291" optype="continuous" dataType="double"/>
		<DataField name="x292" optype="continuous" dataType="double"/>
		<DataField name="x293" optype="continuous" dataType="double"/>
		<DataField name="x294" optype="continuous" dataType="double"/>
		<DataField name="x295" optype="continuous" dataType="double"/>
		<DataField name="x296" optype="continuous" dataType="double"/>
		<DataField name="x297" optype="continuous" dataType="double"/>
		<DataField name="x298" optype="continuous" dataType="double"/>
		<DataField name="x299" optype="continuous" dataType="double"/>
		<DataField name="x300" optype="continuous" dataType="double"/>
		<DataField name="x301" optype="continuous" dataType="double"/>
		<DataField name="x302" optype="continuous" dataType="double"/>
		<DataField name="x303" optype="continuous" dataType="double"/>
		<DataField name="x304" optype="continuous" dataType="double"/>
		<DataField name="x305" optype="continuous" dataType="double"/>
		<DataField name="x306" optype="continuous" dataType="double"/>
		<DataField name="x307" optype="continuous" dataType="double"/>
		<DataField name="x308" optype="continuous" dataType="double"/>
		<DataField name="x309" optype="continuous" dataType="double"/>
		<DataField name="x310" optype="continuous" dataType="double"/>
		<DataField name="x311" optype="continuous" dataType="double"/>
		<DataField name="x312" optype="continuous" dataType="double"/>
		<DataField name="x313" optype="continuous" dataType="double"/>
		<DataField name="x314" optype="continuous" dataType="double"/>
		<DataField name="x315" optype="continuous" dataType="double"/>
		<DataField name="x316" optype="continuous" dataType="double"/>
		<DataField name="x317" optype="continuous" dataType="double"/>
		<DataField name="x318" optype="continuous" dataType="double"/>
		<DataField name="x319" optype="continuous" dataType="double"/>
		<DataField name="x320" optype="continuous" dataType="double"/>
		<DataField name="x321" optype="continuous" dataType="double"/>
		<DataField name="x322" optype="continuous" dataType="double"/>
		<DataField name="x323" optype="continuous" dataType="double"/>
		<DataField name="x324" optype="continuous" dataType="double"/>
		<DataField name="x325" optype="continuous" dataType="double"/>
		<DataField name="x326" optype="continuous" dataType="double"/>
		<DataField name="x327" optype="continuous" dataType="double"/>
		<DataField name="x328" optype="continuous" dataType="double"/>
		<DataField name="x329" optype="continuous" dataType="double"/>
		<DataField name="x330" optype="continuous" dataType="double"/>
		<DataField name="x331" optype="continuous" dataType="double"/>
		<DataField name="x332" optype="continuous" dataType="double"/>
		<DataField name="x333" optype="continuous" dataType="double"/>
		<DataField name="x334" optype="continuous" dataType="double"/>
		<DataField name="x335" optype="continuous" dataType="double"/>
		<DataField name="x336" optype="continuous" dataType="double"/>
		<DataField name="x338" optype="continuous" dataType="double"/>
		<DataField name="x339" optype="continuous" dataType="double"/>
		<DataField name="x340" optype="continuous" dataType="double"/>
		<DataField name="x341" optype="continuous" dataType="double"/>
		<DataField name="x342" optype="continuous" dataType="double"/>
		<DataField name="x343" optype="continuous" dataType="double"/>
		<DataField name="x344" optype="continuous" dataType="double"/>
		<DataField name="x345" optype="continuous" dataType="double"/>
		<DataField name="x346" optype="continuous" dataType="double"/>
		<DataField name="x347" optype="continuous" dataType="double"/>
		<DataField name="x348" optype="continuous" dataType="double"/>
		<DataField name="x349" optype="continuous" dataType="double"/>
		<DataField name="x350" optype="continuous" dataType="double"/>
		<DataField name="x351" optype="continuous" dataType="double"/>
		<DataField name="x352" optype="continuous" dataType="double"/>
		<DataField name="x353" optype="continuous" dataType="double"/>
		<DataField name="x354" optype="continuous" dataType="double"/>
		<DataField name="x355" optype="continuous" dataType="double"/>
		<DataField name="x356" optype="continuous" dataType="double"/>
		<DataField name="x357" optype="continuous" dataType="double"/>
		<DataField name="x358" optype="continuous" dataType="double"/>
		<DataField name="x359" optype="continuous" dataType="double"/>
		<DataField name="x360" optype="continuous" dataType="double"/>
		<DataField name="x361" optype="continuous" dataType="double"/>
		<DataField name="x362" optype="continuous" dataType="double"/>
		<DataField name="x363" optype="continuous" dataType="double"/>
		<DataField name="x364" optype="continuous" dataType="double"/>
		<DataField name="x366" optype="continuous" dataType="double"/>
		<DataField name="x367" optype="continuous" dataType="double"/>
		<DataField name="x368" optype="continuous" dataType="double"/>
		<DataField name="x369" optype="continuous" dataType="double"/>
		<DataField name="x370" optype="continuous" dataType="double"/>
		<DataField name="x371" optype="continuous" dataType="double"/>
		<DataField name="x372" optype="continuous" dataType="double"/>
		<DataField name="x373" optype="continuous" dataType="double"/>
		<DataField name="x374" optype="continuous" dataType="double"/>
		<DataField name="x375" optype="continuous" dataType="double"/>
		<DataField name="x376" optype="continuous" dataType="double"/>
		<DataField name="x377" optype="continuous" dataType="double"/>
		<DataField name="x378" optype="continuous" dataType="double"/>
		<DataField name="x379" optype="continuous" dataType="double"/>
		<DataField name="x380" optype="continuous" dataType="double"/>
		<DataField name="x381" optype="continuous" dataType="double"/>
		<DataField name="x382" optype="continuous" dataType="double"/>
		<DataField name="x383" optype="continuous" dataType="double"/>
		<DataField name="x384" optype="continuous" dataType="double"/>
		<DataField name="x385" optype="continuous" dataType="double"/>
		<DataField name="x386" optype="continuous" dataType="double"/>
		<DataField name="x387" optype="continuous" dataType="double"/>
		<DataField name="x388" optype="continuous" dataType="double"/>
		<DataField name="x389" optype="continuous" dataType="double"/>
		<DataField name="x390" optype="continuous" dataType="double"/>
		<DataField name="x391" optype="continuous" dataType="double"/>
		<DataField name="x394" optype="continuous" dataType="double"/>
		<DataField name="x395" optype="continuous" dataType="double"/>
		<DataField name="x396" optype="continuous" dataType="double"/>
		<DataField name="x397" optype="continuous" dataType="double"/>
		<DataField name="x398" optype="continuous" dataType="double"/>
		<DataField name="x399" optype="continuous" dataType="double"/>
		<DataField name="x400" optype="continuous" dataType="double"/>
		<DataField name="x401" optype="continuous" dataType="double"/>
		<DataField name="x402" optype="continuous" dataType="double"/>
		<DataField name="x403" optype="continuous" dataType="double"/>
		<DataField name="x404" optype="continuous" dataType="double"/>
		<DataField name="x405" optype="continuous" dataType="double"/>
		<DataField name="x406" optype="continuous" dataType="double"/>
		<DataField name="x407" optype="continuous" dataType="double"/>
		<DataField name="x408" optype="continuous" dataType="double"/>
		<DataField name="x409" optype="continuous" dataType="double"/>
		<DataField name="x410" optype="continuous" dataType="double"/>
		<DataField name="x411" optype="continuous" dataType="double"/>
		<DataField name="x412" optype="continuous" dataType="double"/>
		<DataField name="x413" optype="continuous" dataType="double"/>
		<DataField name="x414" optype="continuous" dataType="double"/>
		<DataField name="x415" optype="continuous" dataType="double"/>
		<DataField name="x416" optype="continuous" dataType="double"/>
		<DataField name="x417" optype="continuous" dataType="double"/>
		<DataField name="x418" optype="continuous" dataType="double"/>
		<DataField name="x419" optype="continuous" dataType="double"/>
		<DataField name="x421" optype="continuous" dataType="double"/>
		<DataField name="x422" optype="continuous" dataType="double"/>
		<DataField name="x423" optype="continuous" dataType="double"/>
		<DataField name="x424" optype="continuous" dataType="double"/>
		<DataField name="x425" optype="continuous" dataType="double"/>
		<DataField name="x426" optype="continuous" dataType="double"/>
		<DataField name="x427" optype="continuous" dataType="double"/>
		<DataField name="x428" optype="continuous" dataType="double"/>
		<DataField name="x429" optype="continuous" dataType="double"/>
		<DataField name="x430" optype="continuous" dataType="double"/>
		<DataField name="x431" optype="continuous" dataType="double"/>
		<DataField name="x432" optype="continuous" dataType="double"/>
		<DataField name="x433" optype="continuous" dataType="double"/>
		<DataField name="x434" optype="continuous" dataType="double"/>
		<DataField name="x435" optype="continuous" dataType="double"/>
		<DataField name="x436" optype="continuous" dataType="double"/>
		<DataField name="x437" optype="continuous" dataType="double"/>
		<DataField name="x438" optype="continuous" dataType="double"/>
		<DataField name="x439" optype="continuous" dataType="double"/>
		<DataField name="x440" optype="continuous" dataType="double"/>
		<DataField name="x441" optype="continuous" dataType="double"/>
		<DataField name="x442" optype="continuous" dataType="double"/>
		<DataField name="x443" optype="continuous" dataType="double"/>
		<DataField name="x444" optype="continuous" dataType="double"/>
		<DataField name="x445" optype="continuous" dataType="double"/>
		<DataField name="x446" optype="continuous" dataType="double"/>
		<DataField name="x447" optype="continuous" dataType="double"/>
		<DataField name="x448" optype="continuous" dataType="double"/>
		<DataField name="x449" optype="continuous" dataType="double"/>
		<DataField name="x450" optype="continuous" dataType="double"/>
		<DataField name="x451" optype="continuous" dataType="double"/>
		<DataField name="x452" optype="continuous" dataType="double"/>
		<DataField name="x453" optype="continuous" dataType="double"/>
		<DataField name="x454" optype="continuous" dataType="double"/>
		<DataField name="x455" optype="continuous" dataType="double"/>
		<DataField name="x456" optype="continuous" dataType="double"/>
		<DataField name="x457" optype="continuous" dataType="double"/>
		<DataField name="x458" optype="continuous" dataType="double"/>
		<DataField name="x459" optype="continuous" dataType="double"/>
		<DataField name="x460" optype="continuous" dataType="double"/>
		<DataField name="x461" optype="continuous" dataType="double"/>
		<DataField name="x462" optype="continuous" dataType="double"/>
		<DataField name="x463" optype="continuous" dataType="double"/>
		<DataField name="x464" optype="continuous" dataType="double"/>
		<DataField name="x465" optype="continuous" dataType="double"/>
		<DataField name="x466" optype="continuous" dataType="double"/>
		<DataField name="x467" optype="continuous" dataType="double"/>
		<DataField name="x468" optype="continuous" dataType="double"/>
		<DataField name="x469" optype="continuous" dataType="double"/>
		<DataField name="x470" optype="continuous" dataType="double"/>
		<DataField name="x471" optype="continuous" dataType="double"/>
		<DataField name="x472" optype="continuous" dataType="double"/>
		<DataField name="x473" optype="continuous" dataType="double"/>
		<DataField name="x474" optype="continuous" dataType="double"/>
		<DataField name="x475" optype="continuous" dataType="double"/>
		<DataField name="x476" optype="continuous" dataType="double"/>
		<DataField name="x478" optype="continuous" dataType="double"/>
		<DataField name="x479" optype="continuous" dataType="double"/>
		<DataField name="x480" optype="continuous" dataType="double"/>
		<DataField name="x481" optype="continuous" dataType="double"/>
		<DataField name="x482" optype="continuous" dataType="double"/>
		<DataField name="x483" optype="continuous" dataType="double"/>
		<DataField name="x484" optype="continuous" dataType="double"/>
		<DataField name="x485" optype="continuous" dataType="double"/>
		<DataField name="x486" optype="continuous" dataType="double"/>
		<DataField name="x487" optype="continuous" dataType="double"/>
		<DataField name="x488" optype="continuous" dataType="double"/>
		<DataField name="x489" optype="continuous" dataType="double"/>
		<DataField name="x490" optype="continuous" dataType="double"/>
		<DataField name="x491" optype="continuous" dataType="double"/>
		<DataField name="x492" optype="continuous" dataType="double"/>
		<DataField name="x493" optype="continuous" dataType="double"/>
		<DataField name="x494" optype="continuous" dataType="double"/>
		<DataField name="x495" optype="continuous" dataType="double"/>
		<DataField name="x496" optype="continuous" dataType="double"/>
		<DataField name="x497" optype="continuous" dataType="double"/>
		<DataField name="x498" optype="continuous" dataType="double"/>
		<DataField name="x499" optype="continuous" dataType="double"/>
		<DataField name="x500" optype="continuous" dataType="double"/>
		<DataField name="x501" optype="continuous" dataType="double"/>
		<DataField name="x502" optype="continuous" dataType="double"/>
		<DataField name="x503" optype="continuous" dataType="double"/>
		<DataField name="x504" optype="continuous" dataType="double"/>
		<DataField name="x505" optype="continuous" dataType="double"/>
		<DataField name="x506" optype="continuous" dataType="double"/>
		<DataField name="x507" optype="continuous" dataType="double"/>
		<DataField name="x508" optype="continuous" dataType="double"/>
		<DataField name="x509" optype="continuous" dataType="double"/>
		<DataField name="x510" optype="continuous" dataType="double"/>
		<DataField name="x511" optype="continuous" dataType="double"/>
		<DataField name="x512" optype="continuous" dataType="double"/>
		<DataField name="x513" optype="continuous" dataType="double"/>
		<DataField name="x514" optype="continuous" dataType="double"/>
		<DataField name="x515" optype="continuous" dataType="double"/>
		<DataField name="x516" optype="continuous" dataType="double"/>
		<DataField name="x517" optype="continuous" dataType="double"/>
		<DataField name="x518" optype="continuous" dataType="double"/>
		<DataField name="x519" optype="continuous" dataType="double"/>
		<DataField name="x520" optype="continuous" dataType="double"/>
		<DataField name="x521" optype="continuous" dataType="double"/>
		<DataField name="x522" optype="continuous" dataType="double"/>
		<DataField name="x523" optype="continuous" dataType="double"/>
		<DataField name="x524" optype="continuous" dataType="double"/>
		<DataField name="x525" optype="continuous" dataType="double"/>
		<DataField name="x526" optype="continuous" dataType="double"/>
		<DataField name="x527" optype="continuous" dataType="double"/>
		<DataField name="x528" optype="continuous" dataType="double"/>
		<DataField name="x529" optype="continuous" dataType="double"/>
		<DataField name="x530" optype="continuous" dataType="double"/>
		<DataField name="x531" optype="continuous" dataType="double"/>
		<DataField name="x532" optype="continuous" dataType="double"/>
		<DataField name="x534" optype="continuous" dataType="double"/>
		<DataField name="x535" optype="continuous" dataType="double"/>
		<DataField name="x536" optype="continuous" dataType="double"/>
		<DataField name="x537" optype="continuous" dataType="double"/>
		<DataField name="x538" optype="continuous" dataType="double"/>
		<DataField name="x539" optype="continuous" dataType="double"/>
		<DataField name="x540" optype="continuous" dataType="double"/>
		<DataField name="x541" optype="continuous" dataType="double"/>
		<DataField name="x542" optype="continuous" dataType="double"/>
		<DataField name="x543" optype="continuous" dataType="double"/>
		<DataField name="x544" optype="continuous" dataType="double"/>
		<DataField name="x545" optype="continuous" dataType="double"/>
		<DataField name="x546" optype="continuous" dataType="double"/>
		<DataField name="x547" optype="continuous" dataType="double"/>
		<DataField name="x548" optype="continuous" dataType="double"/>
		<DataField name="x549" optype="continuous" dataType="double"/>
		<DataField name="x550" optype="continuous" dataType="double"/>
		<DataField name="x551" optype="continuous" dataType="double"/>
		<DataField name="x552" optype="continuous" dataType="double"/>
		<DataField name="x553" optype="continuous" dataType="double"/>
		<DataField name="x554" optype="continuous" dataType="double"/>
		<DataField name="x555" optype="continuous" dataType="double"/>
		<DataField name="x556" optype="continuous" dataType="double"/>
		<DataField name="x557" optype="continuous" dataType="double"/>
		<DataField name="x558" optype="continuous" dataType="double"/>
		<DataField name="x559" optype="continuous" dataType="double"/>
		<DataField name="x560" optype="continuous" dataType="double"/>
		<DataField name="x562" optype="continuous" dataType="double"/>
		<DataField name="x563" optype="continuous" dataType="double"/>
		<DataField name="x564" optype="continuous" dataType="double"/>
		<DataField name="x565" optype="continuous" dataType="double"/>
		<DataField name="x566" optype="continuous" dataType="double"/>
		<DataField name="x567" optype="continuous" dataType="double"/>
		<DataField name="x568" optype="continuous" dataType="double"/>
		<DataField name="x569" optype="continuous" dataType="double"/>
		<DataField name="x570" optype="continuous" dataType="double"/>
		<DataField name="x571" optype="continuous" dataType="double"/>
		<DataField name="x572" optype="continuous" dataType="double"/>
		<DataField name="x573" optype="continuous" dataType="double"/>
		<DataField name="x574" optype="continuous" dataType="double"/>
		<DataField name="x575" optype="continuous" dataType="double"/>
		<DataField name="x576" optype="continuous" dataType="double"/>
		<DataField name="x577" optype="continuous" dataType="double"/>
		<DataField name="x578" optype="continuous" dataType="double"/>
		<DataField name="x579" optype="continuous" dataType="double"/>
		<DataField name="x580" optype="continuous" dataType="double"/>
		<DataField name="x581" optype="continuous" dataType="double"/>
		<DataField name="x582" optype="continuous" dataType="double"/>
		<DataField name="x583" optype="continuous" dataType="double"/>
		<DataField name="x584" optype="continuous" dataType="double"/>
		<DataField name="x585" optype="continuous" dataType="double"/>
		<DataField name="x586" optype="continuous" dataType="double"/>
		<DataField name="x587" optype="continuous" dataType="double"/>
		<DataField name="x588" optype="continuous" dataType="double"/>
		<DataField name="x590" optype="continuous" dataType="double"/>
		<DataField name="x591" optype="continuous" dataType="double"/>
		<DataField name="x592" optype="continuous" dataType="double"/>
		<DataField name="x593" optype="continuous" dataType="double"/>
		<DataField name="x594" optype="continuous" dataType="double"/>
		<DataField name="x595" optype="continuous" dataType="double"/>
		<DataField name="x596" optype="continuous" dataType="double"/>
		<DataField name="x597" optype="continuous" dataType="double"/>
		<DataField name="x598" optype="continuous" dataType="double"/>
		<DataField name="x599" optype="continuous" dataType="double"/>
		<DataField name="x600" optype="continuous" dataType="double"/>
		<DataField name="x601" optype="continuous" dataType="double"/>
		<DataField name="x602" optype="continuous" dataType="double"/>
		<DataField name="x603" optype="continuous" dataType="double"/>
		<DataField name="x604" optype="continuous" dataType="double"/>
		<DataField name="x605" optype="continuous" dataType="double"/>
		<DataField name="x606" optype="continuous" dataType="double"/>
		<DataField name="x607" optype="continuous" dataType="double"/>
		<DataField name="x608" optype="continuous" dataType="double"/>
		<DataField name="x609" optype="continuous" dataType="double"/>
		<DataField name="x610" optype="continuous" dataType="double"/>
		<DataField name="x611" optype="continuous" dataType="double"/>
		<DataField name="x612" optype="continuous" dataType="double"/>
		<DataField name="x613" optype="continuous" dataType="double"/>
		<DataField name="x614" optype="continuous" dataType="double"/>
		<DataField name="x615" optype="continuous" dataType="double"/>
		<DataField name="x616" optype="continuous" dataType="double"/>
		<DataField name="x619" optype="continuous" dataType="double"/>
		<DataField name="x620" optype="continuous" dataType="double"/>
		<DataField name="x621" optype="continuous" dataType="double"/>
		<DataField name="x622" optype="continuous" dataType="double"/>
		<DataField name="x623" optype="continuous" dataType="double"/>
		<DataField name="x624" optype="continuous" dataType="double"/>
		<DataField name="x625" optype="continuous" dataType="double"/>
		<DataField name="x626" optype="continuous" dataType="double"/>
		<DataField name="x627" optype="continuous" dataType="double"/>
		<DataField name="x628" optype="continuous" dataType="double"/>
		<DataField name="x629" optype="continuous" dataType="double"/>
		<DataField name="x630" optype="continuous" dataType="double"/>
		<DataField name="x631" optype="continuous" dataType="double"/>
		<DataField name="x632" optype="continuous" dataType="double"/>
		<DataField name="x633" optype="continuous" dataType="double"/>
		<DataField name="x634" optype="continuous" dataType="double"/>
		<DataField name="x635" optype="continuous" dataType="double"/>
		<DataField name="x636" optype="continuous" dataType="double"/>
		<DataField name="x637" optype="continuous" dataType="double"/>
		<DataField name="x638" optype="continuous" dataType="double"/>
		<DataField name="x639" optype="continuous" dataType="double"/>
		<DataField name="x640" optype="continuous" dataType="double"/>
		<DataField name="x641" optype="continuous" dataType="double"/>
		<DataField name="x642" optype="continuous" dataType="double"/>
		<DataField name="x643" optype="continuous" dataType="double"/>
		<DataField name="x644" optype="continuous" dataType="double"/>
		<DataField name="x647" optype="continuous" dataType="double"/>
		<DataField name="x648" optype="continuous" dataType="double"/>
		<DataField name="x649" optype="continuous" dataType="double"/>
		<DataField name="x650" optype="continuous" dataType="double"/>
		<DataField name="x651" optype="continuous" dataType="double"/>
		<DataField name="x652" optype="continuous" dataType="double"/>
		<DataField name="x653" optype="continuous" dataType="double"/>
		<DataField name="x654" optype="continuous" dataType="double"/>
		<DataField name="x655" optype="continuous" dataType="double"/>
		<DataField name="x656" optype="continuous" dataType="double"/>
		<DataField name="x657" optype="continuous" dataType="double"/>
		<DataField name="x658" optype="continuous" dataType="double"/>
		<DataField name="x659" optype="continuous" dataType="double"/>
		<DataField name="x660" optype="continuous" dataType="double"/>
		<DataField name="x661" optype="continuous" dataType="double"/>
		<DataField name="x662" optype="continuous" dataType="double"/>
		<DataField name="x663" optype="continuous" dataType="double"/>
		<DataField name="x664" optype="continuous" dataType="double"/>
		<DataField name="x665" optype="continuous" dataType="double"/>
		<DataField name="x666" optype="continuous" dataType="double"/>
		<DataField name="x667" optype="continuous" dataType="double"/>
		<DataField name="x668" optype="continuous" dataType="double"/>
		<DataField name="x669" optype="continuous" dataType="double"/>
		<DataField name="x670" optype="continuous" dataType="double"/>
		<DataField name="x671" optype="continuous" dataType="double"/>
		<DataField name="x675" optype="continuous" dataType="double"/>
		<DataField name="x676" optype="continuous" dataType="double"/>
		<DataField name="x677" optype="continuous" dataType="double"/>
		<DataField name="x678" optype="continuous" dataType="double"/>
		<DataField name="x679" optype="continuous" dataType="double"/>
		<DataField name="x680" optype="continuous" dataType="double"/>
		<DataField name="x681" optype="continuous" dataType="double"/>
		<DataField name="x682" optype="continuous" dataType="double"/>
		<DataField name="x683" optype="continuous" dataType="double"/>
		<DataField name="x684" optype="continuous" dataType="double"/>
		<DataField name="x685" optype="continuous" dataType="double"/>
		<DataField name="x686" optype="continuous" dataType="double"/>
		<DataField name="x687" optype="continuous" dataType="double"/>
		<DataField name="x688" optype="continuous" dataType="double"/>
		<DataField name="x689" optype="continuous" dataType="double"/>
		<DataField name="x690" optype="continuous" dataType="double"/>
		<DataField name="x691" optype="continuous" dataType="double"/>
		<DataField name="x692" optype="continuous" dataType="double"/>
		<DataField name="x693" optype="continuous" dataType="double"/>
		<DataField name="x694" optype="continuous" dataType="double"/>
		<DataField name="x695" optype="continuous" dataType="double"/>
		<DataField name="x696" optype="continuous" dataType="double"/>
		<DataField name="x697" optype="continuous" dataType="double"/>
		<DataField name="x698" optype="continuous" dataType="double"/>
		<DataField name="x699" optype="continuous" dataType="double"/>
		<DataField name="x704" optype="continuous" dataType="double"/>
		<DataField name="x705" optype="continuous" dataType="double"/>
		<DataField name="x706" optype="continuous" dataType="double"/>
		<DataField name="x707" optype="continuous" dataType="double"/>
		<DataField name="x708" optype="continuous" dataType="double"/>
		<DataField name="x709" optype="continuous" dataType="double"/>
		<DataField name="x710" optype="continuous" dataType="double"/>
		<DataField name="x711" optype="continuous" dataType="double"/>
		<DataField name="x712" optype="continuous" dataType="double"/>
		<DataField name="x713" optype="continuous" dataType="double"/>
		<DataField name="x714" optype="continuous" dataType="double"/>
		<DataField name="x715" optype="continuous" dataType="double"/>
		<DataField name="x716" optype="continuous" dataType="double"/>
		<DataField name="x717" optype="continuous" dataType="double"/>
		<DataField name="x718" optype="continuous" dataType="double"/>
		<DataField name="x719" optype="continuous" dataType="double"/>
		<DataField name="x720" optype="continuous" dataType="double"/>
		<DataField name="x721" optype="continuous" dataType="double"/>
		<DataField name="x722" optype="continuous" dataType="double"/>
		<DataField name="x723" optype="continuous" dataType="double"/>
		<DataField name="x724" optype="continuous" dataType="double"/>
		<DataField name="x725" optype="continuous" dataType="double"/>
		<DataField name="x726" optype="continuous" dataType="double"/>
		<DataField name="x727" optype="continuous" dataType="double"/>
		<DataField name="x732" optype="continuous" dataType="double"/>
		<DataField name="x733" optype="continuous" dataType="double"/>
		<DataField name="x734" optype="continuous" dataType="double"/>
		<DataField name="x735" optype="continuous" dataType="double"/>
		<DataField name="x736" optype="continuous" dataType="double"/>
		<DataField name="x737" optype="continuous" dataType="double"/>
		<DataField name="x738" optype="continuous" dataType="double"/>
		<DataField name="x739" optype="continuous" dataType="double"/>
		<DataField name="x740" optype="continuous" dataType="double"/>
		<DataField name="x741" optype="continuous" dataType="double"/>
		<DataField name="x742" optype="continuous" dataType="double"/>
		<DataField name="x743" optype="continuous" dataType="double"/>
		<DataField name="x744" optype="continuous" dataType="double"/>
		<DataField name="x745" optype="continuous" dataType="double"/>
		<DataField name="x746" optype="continuous" dataType="double"/>
		<DataField name="x747" optype="continuous" dataType="double"/>
		<DataField name="x748" optype="continuous" dataType="double"/>
		<DataField name="x749" optype="continuous" dataType="double"/>
		<DataField name="x750" optype="continuous" dataType="double"/>
		<DataField name="x751" optype="continuous" dataType="double"/>
		<DataField name="x752" optype="continuous" dataType="double"/>
		<DataField name="x761" optype="continuous" dataType="double"/>
		<DataField name="x762" optype="continuous" dataType="double"/>
		<DataField name="x763" optype="continuous" dataType="double"/>
		<DataField name="x764" optype="continuous" dataType="double"/>
		<DataField name="x765" optype="continuous" dataType="double"/>
		<DataField name="x766" optype="continuous" dataType="double"/>
		<DataField name="x767" optype="continuous" dataType="double"/>
		<DataField name="x768" optype="continuous" dataType="double"/>
		<DataField name="x769" optype="continuous" dataType="double"/>
		<DataField name="x770" optype="continuous" dataType="double"/>
		<DataField name="x771" optype="continuous" dataType="double"/>
		<DataField name="x772" optype="continuous" dataType="double"/>
		<DataField name="x773" optype="continuous" dataType="double"/>
		<DataField name="x774" optype="continuous" dataType="double"/>
		<DataField name="x775" optype="continuous" dataType="double"/>
		<DataField name="x776" optype="continuous" dataType="double"/>
		<DataField name="x777" optype="continuous" dataType="double"/>
		<DataField name="x778" optype="continuous" dataType="double"/>
		<DataField name="x779" optype="continuous" dataType="double"/>
		<DataField name="x780" optype="continuous" dataType="double"/>
	</DataDictionary>
	<SupportVectorMachineModel functionName="classification" algorithmName="sklearn.svm._classes.SVC" classificationMethod="OneAgainstOne">
		<MiningSchema>
			<MiningField name="y" usageType="target"/>
			<MiningField name="x13"/>
			<MiningField name="x14"/>
			<MiningField name="x15"/>
			<MiningField name="x16"/>
			<MiningField name="x34"/>
			<MiningField name="x35"/>
			<MiningField name="x36"/>
			<MiningField name="x37"/>
			<MiningField name="x38"/>
			<MiningField name="x39"/>
			<MiningField name="x40"/>
			<MiningField name="x41"/>
			<MiningField name="x42"/>
			<MiningField name="x43"/>
			<MiningField name="x44"/>
			<MiningField name="x45"/>
			<MiningField name="x46"/>
			<MiningField name="x47"/>
			<MiningField name="x48"/>
			<MiningField name="x49"/>
			<MiningField name="x50"/>
			<MiningField name="x51"/>
			<MiningField name="x52"/>
			<MiningField name="x61"/>
			<MiningField name="x62"/>
			<MiningField name="x63"/>
			<MiningField name="x64"/>
			<MiningField name="x65"/>
			<MiningField name="x66"/>
			<MiningField name="x67"/>
			<MiningField name="x68"/>
			<MiningField name="x69"/>
			<MiningField name="x70"/>
			<MiningField name="x71"/>
			<MiningField name="x72"/>
			<MiningField name="x73"/>
			<MiningField name="x74"/>
			<MiningField name="x75"/>
			<MiningField name="x76"/>
			<MiningField name="x77"/>
			<MiningField name="x78"/>
			<MiningField name="x79"/>
			<MiningField name="x80"/>
			<MiningField name="x81"/>
			<MiningField name="x82"/>
			<MiningField name="x88"/>
			<MiningField name="x89"/>
			<MiningField name="x90"/>
			<MiningField name="x91"/>
			<MiningField name="x92"/>
			<MiningField name="x93"/>
			<MiningField name="x94"/>
			<MiningField name="x95"/>
			<MiningField name="x96"/>
			<MiningField name="x97"/>
			<MiningField name="x98"/>
			<MiningField name="x99"/>
			<MiningField name="x100"/>
			<MiningField name="x101"/>
			<MiningField name="x102"/>
			<MiningField name="x103"/>
			<MiningField name="x104"/>
			<MiningField name="x105"/>
			<MiningField name="x106"/>
			<MiningField name="x107"/>
			<MiningField name="x108"/>
			<MiningField name="x109"/>
			<MiningField name="x110"/>
			<MiningField name="x116"/>
			<MiningField name="x117"/>
			<MiningField name="x118"/>
			<MiningField name="x119"/>
			<MiningField name="x120"/>
			<MiningField name="x121"/>
			<MiningField name="x122"/>
			<MiningField name="x123"/>
			<MiningField name="x124"/>
			<MiningField name="x125"/>
			<MiningField name="x126"/>
			<MiningField name="x127"/>
			<MiningField name="x128"/>
			<MiningField name="x129"/>
			<MiningField name="x130"/>
			<MiningField name="x131"/>
			<MiningField name="x132"/>
			<MiningField name="x133"/>
			<MiningField name="x134"/>
			<MiningField name="x135"/>
			<MiningField name="x136"/>
			<MiningField name="x137"/>
			<MiningField name="x138"/>
			<MiningField name="x139"/>
			<MiningField name="x143"/>
			<MiningField name="x144"/>
			<MiningField name="x145"/>
			<MiningField name="x146"/>
			<MiningField name="x147"/>
			<MiningField name="x148"/>
			<MiningField name="x149"/>
			<MiningField name="x150"/>
			<MiningField name="x151"/>
			<MiningField name="x152"/>
			<MiningField name="x153"/>
			<MiningField name="x154"/>
			<MiningField name="x155"/>
			<MiningField name="x156"/>
			<MiningField name="x157"/>
			<MiningField name="x158"/>
			<MiningField name="x159"/>
			<MiningField name="x160"/>
			<MiningField name="x161"/>
			<MiningField name="x162"/>
			<MiningField name="x163"/>
			<MiningField name="x164"/>
			<MiningField name="x165"/>
			<MiningField name="x166"/>
			<MiningField name="x167"/>
			<MiningField name="x168"/>
			<MiningField name="x171"/>
			<MiningField name="x172"/>
			<MiningField name="x173"/>
			<MiningField name="x174"/>
			<MiningField name="x175"/>
			<MiningField name="x176"/>
			<MiningField name="x177"/>
			<MiningField name="x178"/>
			<MiningField name="x179"/>
			<MiningField name="x180"/>
			<MiningField name="x181"/>
			<MiningField name="x182"/>
			<MiningField name="x183"/>
			<MiningField name="x184"/>
			<MiningField name="x185"/>
			<MiningField name="x186"/>
			<MiningField name="x187"/>
			<MiningField name="x188"/>
			<MiningField name="x189"/>
			<MiningField name="x190"/>
			<MiningField name="x191"/>
			<MiningField name="x192"/>
			<MiningField name="x193"/>
			<MiningField name="x194"/>
			<MiningField name="x195"/>
			<MiningField name="x196"/>
			<MiningField name="x197"/>
			<MiningField name="x198"/>
			<MiningField name="x199"/>
			<MiningField name="x200"/>
			<MiningField name="x201"/>
			<MiningField name="x202"/>
			<MiningField name="x203"/>
			<MiningField name="x204"/>
			<MiningField name="x205"/>
			<MiningField name="x206"/>
			<MiningField name="x207"/>
			<MiningField name="x208"/>
			<MiningField name="x209"/>
			<MiningField name="x210"/>
			<MiningField name="x211"/>
			<MiningField name="x212"/>
			<MiningField name="x213"/>
			<MiningField name="x214"/>
			<MiningField name="x215"/>
			<MiningField name="x216"/>
			<MiningField name="x217"/>
			<MiningField name="x218"/>
			<MiningField name="x219"/>
			<MiningField name="x220"/>
			<MiningField name="x221"/>
			<MiningField name="x222"/>
			<MiningField name="x223"/>
			<MiningField name="x224"/>
			<MiningField name="x225"/>
			<MiningField name="x226"/>
			<MiningField name="x227"/>
			<MiningField name="x228"/>
			<MiningField name="x229"/>
			<MiningField name="x230"/>
			<MiningField name="x231"/>
			<MiningField name="x232"/>
			<MiningField name="x233"/>
			<MiningField name="x234"/>
			<MiningField name="x235"/>
			<MiningField name="x236"/>
			<MiningField name="x237"/>
			<MiningField name="x238"/>
			<MiningField name="x239"/>
			<MiningField name="x240"/>
			<MiningField name="x241"/>
			<MiningField name="x242"/>
			<MiningField name="x243"/>
			<MiningField name="x244"/>
			<MiningField name="x245"/>
			<MiningField name="x246"/>
			<MiningField name="x247"/>
			<MiningField name="x248"/>
			<MiningField name="x249"/>
			<MiningField name="x250"/>
			<MiningField name="x251"/>
			<MiningField name="x252"/>
			<MiningField name="x253"/>
			<MiningField name="x254"/>
			<MiningField name="x255"/>
			<MiningField name="x256"/>
			<MiningField name="x257"/>
			<MiningField name="x258"/>
			<MiningField name="x259"/>
			<MiningField name="x260"/>
			<MiningField name="x261"/>
			<MiningField name="x262"/>
			<MiningField name="x263"/>
			<MiningField name="x264"/>
			<MiningField name="x265"/>
			<MiningField name="x266"/>
			<MiningField name="x267"/>
			<MiningField name="x268"/>
			<MiningField name="x269"/>
			<MiningField name="x270"/>
			<MiningField name="x271"/>
			<MiningField name="x272"/>
			<MiningField name="x273"/>
			<MiningField name="x274"/>
			<MiningField name="x275"/>
			<MiningField name="x276"/>
			<MiningField name="x277"/>
			<MiningField name="x278"/>
			<MiningField name="x279"/>
			<MiningField name="x280"/>
			<MiningField name="x281"/>
			<MiningField name="x282"/>
			<MiningField name="x283"/>
			<MiningField name="x284"/>
			<MiningField name="x285"/>
			<MiningField name="x286"/>
			<MiningField name="x287"/>
			<MiningField name="x288"/>
			<MiningField name="x289"/>
			<MiningField name="x290"/>
			<MiningField name="x291"/>
			<MiningField name="x292"/>
			<MiningField name="x293"/>
			<MiningField name="x294"/>
			<MiningField name="x295"/>
			<MiningField name="x296"/>
			<MiningField name="x297"/>
			<MiningField name="x298"/>
			<MiningField name="x299"/>
			<MiningField name="x300"/>
			<MiningField name="x301"/>
			<MiningField name="x302"/>
			<MiningField name="x303"/>
			<MiningField name="x304"/>
			<MiningField name="x305"/>
			<MiningField name="x306"/>
			<MiningField name="x307"/>
			<MiningField name="x308"/>
			<MiningField name="x309"/>
			<MiningField name="x310"/>
			<MiningField name="x311"/>
			<MiningField name="x312"/>
			<MiningField name="x313"/>
			<MiningField name="x314"/>
			<MiningField name="x315"/>
			<MiningField name="x316"/>
			<MiningField name="x317"/>
			<MiningField name="x318"/>
			<MiningField name="x319"/>
			<MiningField name="x320"/>
			<MiningField name="x321"/>
			<MiningField name="x322"/>
			<MiningField name="x323"/>
			<MiningField name="x324"/>
			<MiningField name="x325"/>
			<MiningField name="x326"/>
			<MiningField name="x327"/>
			<MiningField name="x328"/>
			<MiningField name="x329"/>
			<MiningField name="x330"/>
			<MiningField name="x331"/>
			<MiningField name="x332"/>
			<MiningField name="x333"/>
			<MiningField name="x334"/>
			<MiningField name="x335"/>
			<MiningField name="x336"/>
			<MiningField name="x338"/>
			<MiningField name="x339"/>
			<MiningField name="x340"/>
			<MiningField name="x341"/>
			<MiningField name="x342"/>
			<MiningField name="x343"/>
			<MiningField name="x344"/>
			<MiningField name="x345"/>
			<MiningField name="x346"/>
			<MiningField name="x347"/>
			<MiningField name="x348"/>
			<MiningField name="x349"/>
			<MiningField name="x350"/>
			<MiningField name="x351"/>
			<MiningField name="x352"/>
			<MiningField name="x353"/>
			<MiningField name="x354"/>
			<MiningField name="x355"/>
			<MiningField name="x356"/>
			<MiningField name="x357"/>
			<MiningField name="x358"/>
			<MiningField name="x359"/>
			<MiningField name="x360"/>
			<MiningField name="x361"/>
			<MiningField name="x362"/>
			<MiningField name="x363"/>
			<MiningField name="x364"/>
			<MiningField name="x366"/>
			<MiningField name="x367"/>
			<MiningField name="x368"/>
			<MiningField name="x369"/>
			<MiningField name="x370"/>
			<MiningField name="x371"/>
			<MiningField name="x372"/>
			<MiningField name="x373"/>
			<MiningField name="x374"/>
			<MiningField name="x375"/>
			<MiningField name="x376"/>
			<MiningField name="x377"/>
			<MiningField name="x378"/>
			<MiningField name="x379"/>
			<MiningField name="x380"/>
			<MiningField name="x381"/>
			<MiningField name="x382"/>
			<MiningField name="x383"/>
			<MiningField name="x384"/>
			<MiningField name="x385"/>
			<MiningField name="x386"/>
			<MiningField name="x387"/>
			<MiningField name="x388"/>
			<MiningField name="x389"/>
			<MiningField name="x390"/>
			<MiningField name="x391"/>
			<MiningField name="x394"/>
			<MiningField name="x395"/>
			<MiningField name="x396"/>
			<MiningField name="x397"/>
			<MiningField name="x398"/>
			<MiningField name="x399"/>
			<MiningField name="x400"/>
			<MiningField name="x401"/>
			<MiningField name="x402"/>
			<MiningField name="x403"/>
			<MiningField name="x404"/>
			<MiningField name="x405"/>
			<MiningField name="x406"/>
			<MiningField name="x407"/>
			<MiningField name="x408"/>
			<MiningField name="x409"/>
			<MiningField name="x410"/>
			<MiningField name="x411"/>
			<MiningField name="x412"/>
			<MiningField name="x413"/>
			<MiningField name="x414"/>
			<MiningField name="x415"/>
			<MiningField name="x416"/>
			<MiningField name="x417"/>
			<MiningField name="x418"/>
			<MiningField name="x419"/>
			<MiningField name="x421"/>
			<MiningField name="x422"/>
			<MiningField name="x423"/>
			<MiningField name="x424"/>
			<MiningField name="x425"/>
			<MiningField name="x426"/>
			<MiningField name="x427"/>
			<MiningField name="x428"/>
			<MiningField name="x429"/>
			<MiningField name="x430"/>
			<MiningField name="x431"/>
			<MiningField name="x432"/>
			<MiningField name="x433"/>
			<MiningField name="x434"/>
			<MiningField name="x435"/>
			<MiningField name="x436"/>
			<MiningField name="x437"/>
			<MiningField name="x438"/>
			<MiningField name="x439"/>
			<MiningField name="x440"/>
			<MiningField name="x441"/>
			<MiningField name="x442"/>
			<MiningField name="x443"/>
			<MiningField name="x444"/>
			<MiningField name="x445"/>
			<MiningField name="x446"/>
			<MiningField name="x447"/>
			<MiningField name="x448"/>
			<MiningField name="x449"/>
			<MiningField name="x450"/>
			<MiningField name="x451"/>
			<MiningField name="x452"/>
			<MiningField name="x453"/>
			<MiningField name="x454"/>
			<MiningField name="x455"/>
			<MiningField name="x456"/>
			<MiningField name="x457"/>
			<MiningField name="x458"/>
			<MiningField name="x459"/>
			<MiningField name="x460"/>
			<MiningField name="x461"/>
			<MiningField name="x462"/>
			<MiningField name="x463"/>
			<MiningField name="x464"/>
			<MiningField name="x465"/>
			<MiningField name="x466"/>
			<MiningField name="x467"/>
			<MiningField name="x468"/>
			<MiningField name="x469"/>
			<MiningField name="x470"/>
			<MiningField name="x471"/>
			<MiningField name="x472"/>
			<MiningField name="x473"/>
			<MiningField name="x474"/>
			<MiningField name="x475"/>
			<MiningField name="x476"/>
			<MiningField name="x478"/>
			<MiningField name="x479"/>
			<MiningField name="x480"/>
			<MiningField name="x481"/>
			<MiningField name="x482"/>
			<MiningField name="x483"/>
			<MiningField name="x484"/>
			<MiningField name="x485"/>
			<MiningField name="x486"/>
			<MiningField name="x487"/>
			<MiningField name="x488"/>
			<MiningField name="x489"/>
			<MiningField name="x490"/>
			<MiningField name="x491"/>
			<MiningField name="x492"/>
			<MiningField name="x493"/>
			<MiningField name="x494"/>
			<MiningField name="x495"/>
			<MiningField name="x496"/>
			<MiningField name="x497"/>
			<MiningField name="x498"/>
			<MiningField name="x499"/>
			<MiningField name="x500"/>
			<MiningField name="x501"/>
			<MiningField name="x502"/>
			<MiningField name="x503"/>
			<MiningField name="x504"/>
			<MiningField name="x505"/>
			<MiningField name="x506"/>
			<MiningField name="x507"/>
			<MiningField name="x508"/>
			<MiningField name="x509"/>
			<MiningField name="x510"/>
			<MiningField name="x511"/>
			<MiningField name="x512"/>
			<MiningField name="x513"/>
			<MiningField name="x514"/>
			<MiningField name="x515"/>
			<MiningField name="x516"/>
			<MiningField name="x517"/>
			<MiningField name="x518"/>
			<MiningField name="x519"/>
			<MiningField name="x520"/>
			<MiningField name="x521"/>
			<MiningField name="x522"/>
			<MiningField name="x523"/>
			<MiningField name="x524"/>
			<MiningField name="x525"/>
			<MiningField name="x526"/>
			<MiningField name="x527"/>
			<MiningField name="x528"/>
			<MiningField name="x529"/>
			<MiningField name="x530"/>
			<MiningField name="x531"/>
			<MiningField name="x532"/>
			<MiningField name="x534"/>
			<MiningField name="x535"/>
			<MiningField name="x536"/>
			<MiningField name="x537"/>
			<MiningField name="x538"/>
			<MiningField name="x539"/>
			<MiningField name="x540"/>
			<MiningField name="x541"/>
			<MiningField name="x542"/>
			<MiningField name="x543"/>
			<MiningField name="x544"/>
			<MiningField name="x545"/>
			<MiningField name="x546"/>
			<MiningField name="x547"/>
			<MiningField name="x548"/>
			<MiningField name="x549"/>
			<MiningField name="x550"/>
			<MiningField name="x551"/>
			<MiningField name="x552"/>
			<MiningField name="x553"/>
			<MiningField name="x554"/>
			<MiningField name="x555"/>
			<MiningField name="x556"/>
			<MiningField name="x557"/>
			<MiningField name="x558"/>
			<MiningField name="x559"/>
			<MiningField name="x560"/>
			<MiningField name="x562"/>
			<MiningField name="x563"/>
			<MiningField name="x564"/>
			<MiningField name="x565"/>
			<MiningField name="x566"/>
			<MiningField name="x567"/>
			<MiningField name="x568"/>
			<MiningField name="x569"/>
			<MiningField name="x570"/>
			<MiningField name="x571"/>
			<MiningField name="x572"/>
			<MiningField name="x573"/>
			<MiningField name="x574"/>
			<MiningField name="x575"/>
			<MiningField name="x576"/>
			<MiningField name="x577"/>
			<MiningField name="x578"/>
			<MiningField name="x579"/>
			<MiningField name="x580"/>
			<MiningField name="x581"/>
			<MiningField name="x582"/>
			<MiningField name="x583"/>
			<MiningField name="x584"/>
			<MiningField name="x585"/>
			<MiningField name="x586"/>
			<MiningField name="x587"/>
			<MiningField name="x588"/>
			<MiningField name="x590"/>
			<MiningField name="x591"/>
			<MiningField name="x592"/>
			<MiningField name="x593"/>
			<MiningField name="x594"/>
			<MiningField name="x595"/>
			<MiningField name="x596"/>
			<MiningField name="x597"/>
			<MiningField name="x598"/>
			<MiningField name="x599"/>
			<MiningField name="x600"/>
			<MiningField name="x601"/>
			<MiningField name="x602"/>
			<MiningField name="x603"/>
			<MiningField name="x604"/>
			<MiningField name="x605"/>
			<MiningField name="x606"/>
			<MiningField name="x607"/>
			<MiningField name="x608"/>
			<MiningField name="x609"/>
			<MiningField name="x610"/>
			<MiningField name="x611"/>
			<MiningField name="x612"/>
			<MiningField name="x613"/>
			<MiningField name="x614"/>
			<MiningField name="x615"/>
			<MiningField name="x616"/>
			<MiningField name="x619"/>
			<MiningField name="x620"/>
			<MiningField name="x621"/>
			<MiningField name="x622"/>
			<MiningField name="x623"/>
			<MiningField name="x624"/>
			<MiningField name="x625"/>
			<MiningField name="x626"/>
			<MiningField name="x627"/>
			<MiningField name="x628"/>
			<MiningField name="x629"/>
			<MiningField name="x630"/>
			<MiningField name="x631"/>
			<MiningField name="x632"/>
			<MiningField name="x633"/>
			<MiningField name="x634"/>
			<MiningField name="x635"/>
			<MiningField name="x636"/>
			<MiningField name="x637"/>
			<MiningField name="x638"/>
			<MiningField name="x639"/>
			<MiningField name="x640"/>
			<MiningField name="x641"/>
			<MiningField name="x642"/>
			<MiningField name="x643"/>
			<MiningField name="x644"/>
			<MiningField name="x647"/>
			<MiningField name="x648"/>
			<MiningField name="x649"/>
			<MiningField name="x650"/>
			<MiningField name="x651"/>
			<MiningField name="x652"/>
			<MiningField name="x653"/>
			<MiningField name="x654"/>
			<MiningField name="x655"/>
			<MiningField name="x656"/>
			<MiningField name="x657"/>
			<MiningField name="x658"/>
			<MiningField name="x659"/>
			<MiningField name="x660"/>
			<MiningField name="x661"/>
			<MiningField name="x662"/>
			<MiningField name="x663"/>
			<MiningField name="x664"/>
			<MiningField name="x665"/>
			<MiningField name="x666"/>
			<MiningField name="x667"/>
			<MiningField name="x668"/>
			<MiningField name="x669"/>
			<MiningField name="x670"/>
			<MiningField name="x671"/>
			<MiningField name="x675"/>
			<MiningField name="x676"/>
			<MiningField name="x677"/>
			<MiningField name="x678"/>
			<MiningField name="x679"/>
			<MiningField name="x680"/>
			<MiningField name="x681"/>
			<MiningField name="x682"/>
			<MiningField name="x683"/>
			<MiningField name="x684"/>
			<MiningField name="x685"/>
			<MiningField name="x686"/>
			<MiningField name="x687"/>
			<MiningField name="x688"/>
			<MiningField name="x689"/>
			<MiningField name="x690"/>
			<MiningField name="x691"/>
			<MiningField name="x692"/>
			<MiningField name="x693"/>
			<MiningField name="x694"/>
			<MiningField name="x695"/>
			<MiningField name="x696"/>
			<MiningField name="x697"/>
			<MiningField name="x698"/>
			<MiningField name="x699"/>
			<MiningField name="x704"/>
			<MiningField name="x705"/>
			<MiningField name="x706"/>
			<MiningField name="x707"/>
			<MiningField name="x708"/>
			<MiningField name="x709"/>
			<MiningField name="x710"/>
			<MiningField name="x711"/>
			<MiningField name="x712"/>
			<MiningField name="x713"/>
			<MiningField name="x714"/>
			<MiningField name="x715"/>
			<MiningField name="x716"/>
			<MiningField name="x717"/>
			<MiningField name="x718"/>
			<MiningField name="x719"/>
			<MiningField name="x720"/>
			<MiningField name="x721"/>
			<MiningField name="x722"/>
			<MiningField name="x723"/>
			<MiningField name="x724"/>
			<MiningField name="x725"/>
			<MiningField name="x726"/>
			<MiningField name="x727"/>
			<MiningField name="x732"/>
			<MiningField name="x733"/>
			<MiningField name="x734"/>
			<MiningField name="x735"/>
			<MiningField name="x736"/>
			<MiningField name="x737"/>
			<MiningField name="x738"/>
			<MiningField name="x739"/>
			<MiningField name="x740"/>
			<MiningField name="x741"/>
			<MiningField name="x742"/>
			<MiningField name="x743"/>
			<MiningField name="x744"/>
			<MiningField name="x745"/>
			<MiningField name="x746"/>
			<MiningField name="x747"/>
			<MiningField name="x748"/>
			<MiningField name="x749"/>
			<MiningField name="x750"/>
			<MiningField name="x751"/>
			<MiningField name="x752"/>
			<MiningField name="x761"/>
			<MiningField name="x762"/>
			<MiningField name="x763"/>
			<MiningField name="x764"/>
			<MiningField name="x765"/>
			<MiningField name="x766"/>
			<MiningField name="x767"/>
			<MiningField name="x768"/>
			<MiningField name="x769"/>
			<MiningField name="x770"/>
			<MiningField name="x771"/>
			<MiningField name="x772"/>
			<MiningField name="x773"/>
			<MiningField name="x774"/>
			<MiningField name="x775"/>
			<MiningField name="x776"/>
			<MiningField name="x777"/>
			<MiningField name="x778"/>
			<MiningField name="x779"/>
			<MiningField name="x780"/>
		</MiningSchema>
		<RadialBasisKernelType gamma="0.15378700499807768"/>
		<VectorDictionary>
			<VectorFields>
				<FieldRef field="x13"/>
				<FieldRef field="x14"/>
				<FieldRef field="x15"/>
				<FieldRef field="x16"/>
				<FieldRef field="x34"/>
				<FieldRef field="x35"/>
				<FieldRef field="x36"/>
				<FieldRef field="x37"/>
				<FieldRef field="x38"/>
				<FieldRef field="x39"/>
				<FieldRef field="x40"/>
				<FieldRef field="x41"/>
				<FieldRef field="x42"/>
				<FieldRef field="x43"/>
				<FieldRef field="x44"/>
				<FieldRef field="x45"/>
				<FieldRef field="x46"/>
				<FieldRef field="x47"/>
				<FieldRef field="x48"/>
				<FieldRef field="x49"/>
				<FieldRef field="x50"/>
				<FieldRef field="x51"/>
				<FieldRef field="x52"/>
				<FieldRef field="x61"/>
				<FieldRef field="x62"/>
				<FieldRef field="x63"/>
				<FieldRef field="x64"/>
				<FieldRef field="x65"/>
				<FieldRef field="x66"/>
				<FieldRef field="x67"/>
				<FieldRef field="x68"/>
				<FieldRef field="x69"/>
				<FieldRef field="x70"/>
				<FieldRef field="x71"/>
				<FieldRef field="x72"/>
				<FieldRef field="x73"/>
				<FieldRef field="x74"/>
				<FieldRef field="x75"/>
				<FieldRef field="x76"/>
				<FieldRef field="x77"/>
				<FieldRef field="x78"/>
				<FieldRef field="x79"/>
				<FieldRef field="x80"/>
				<FieldRef field="x81"/>
				<FieldRef field="x82"/>
				<FieldRef field="x88"/>
				<FieldRef field="x89"/>
				<FieldRef field="x90"/>
				<FieldRef field="x91"/>
				<FieldRef field="x92"/>
				<FieldRef field="x93"/>
				<FieldRef field="x94"/>
				<FieldRef field="x95"/>
				<FieldRef field="x96"/>
				<FieldRef field="x97"/>
				<FieldRef field="x98"/>
				<FieldRef field="x99"/>
				<FieldRef field="x100"/>
				<FieldRef field="x101"/>
				<FieldRef field="x102"/>
				<FieldRef field="x103"/>
				<FieldRef field="x104"/>
				<FieldRef field="x105"/>
				<FieldRef field="x106"/>
				<FieldRef field="x107"/>
				<FieldRef field="x108"/>
				<FieldRef field="x109"/>
				<FieldRef field="x110"/>
				<FieldRef field="x116"/>
				<FieldRef field="x117"/>
				<FieldRef field="x118"/>
				<FieldRef field="x119"/>
				<FieldRef field="x120"/>
				<FieldRef field="x121"/>
				<FieldRef field="x122"/>
				<FieldRef field="x123"/>
				<FieldRef field="x124"/>
				<FieldRef field="x125"/>
				<FieldRef field="x126"/>
				<FieldRef field="x127"/>
				<FieldRef field="x128"/>
				<FieldRef field="x129"/>
				<FieldRef field="x130"/>
				<FieldRef field="x131"/>
				<FieldRef field="x132"/>
				<FieldRef field="x133"/>
				<FieldRef field="x134"/>
				<FieldRef field="x135"/>
				<FieldRef field="x136"/>
				<FieldRef field="x137"/>
				<FieldRef field="x138"/>
				<FieldRef field="x139"/>
				<FieldRef field="x143"/>
				<FieldRef field="x144"/>
				<FieldRef field="x145"/>
				<FieldRef field="x146"/>
				<FieldRef field="x147"/>
				<FieldRef field="x148"/>
				<FieldRef field="x149"/>
				<FieldRef field="x150"/>
				<FieldRef field="x151"/>
				<FieldRef field="x152"/>
				<FieldRef field="x153"/>
				<FieldRef field="x154"/>
				<FieldRef field="x155"/>
				<FieldRef field="x156"/>
				<FieldRef field="x157"/>
				<FieldRef field="x158"/>
				<FieldRef field="x159"/>
				<FieldRef field="x160"/>
				<FieldRef field="x161"/>
				<FieldRef field="x162"/>
				<FieldRef field="x163"/>
				<FieldRef field="x164"/>
				<FieldRef field="x165"/>
				<FieldRef field="x166"/>
				<FieldRef field="x167"/>
				<FieldRef field="x168"/>
				<FieldRef field="x171"/>
				<FieldRef field="x172"/>
				<FieldRef field="x173"/>
				<FieldRef field="x174"/>
				<FieldRef field="x175"/>
				<FieldRef field="x176"/>
				<FieldRef field="x177"/>
				<FieldRef field="x178"/>
				<FieldRef field="x179"/>
				<FieldRef field="x180"/>
				<FieldRef field="x181"/>
				<FieldRef field="x182"/>
				<FieldRef field="x183"/>
				<FieldRef field="x184"/>
				<FieldRef field="x185"/>
				<FieldRef field="x186"/>
				<FieldRef field="x187"/>
				<FieldRef field="x188"/>
				<FieldRef field="x189"/>
				<FieldRef field="x190"/>
				<FieldRef field="x191"/>
				<FieldRef field="x192"/>
				<FieldRef field="x193"/>
				<FieldRef field="x194"/>
				<FieldRef field="x195"/>
				<FieldRef field="x196"/>
				<FieldRef field="x197"/>
				<FieldRef field="x198"/>
				<FieldRef field="x199"/>
				<FieldRef field="x200"/>
				<FieldRef field="x201"/>
				<FieldRef field="x202"/>
				<FieldRef field="x203"/>
				<FieldRef field="x204"/>
				<FieldRef field="x205"/>
				<FieldRef field="x206"/>
				<FieldRef field="x207"/>
				<FieldRef field="x208"/>
				<FieldRef field="x209"/>
				<FieldRef field="x210"/>
				<FieldRef field="x211"/>
				<FieldRef field="x212"/>
				<FieldRef field="x213"/>
				<FieldRef field="x214"/>
				<FieldRef field="x215"/>
				<FieldRef field="x216"/>
				<FieldRef field="x217"/>
				<FieldRef field="x218"/>
				<FieldRef field="x219"/>
				<FieldRef field="x220"/>
				<FieldRef field="x221"/>
				<FieldRef field="x222"/>
				<FieldRef field="x223"/>
				<FieldRef field="x224"/>
				<FieldRef field="x225"/>
				<FieldRef field="x226"/>
				<FieldRef field="x227"/>
				<FieldRef field="x228"/>
				<FieldRef field="x229"/>
				<FieldRef field="x230"/>
				<FieldRef field="x231"/>
				<FieldRef field="x232"/>
				<FieldRef field="x233"/>
				<FieldRef field="x234"/>
				<FieldRef field="x235"/>
				<FieldRef field="x236"/>
				<FieldRef field="x237"/>
				<FieldRef field="x238"/>
				<FieldRef field="x239"/>
				<FieldRef field="x240"/>
				<FieldRef field="x241"/>
				<FieldRef field="x242"/>
				<FieldRef field="x243"/>
				<FieldRef field="x244"/>
				<FieldRef field="x245"/>
				<FieldRef field="x246"/>
				<FieldRef field="x247"/>
				<FieldRef field="x248"/>
				<FieldRef field="x249"/>
				<FieldRef field="x250"/>
				<FieldRef field="x251"/>
				<FieldRef field="x252"/>
				<FieldRef field="x253"/>
				<FieldRef field="x254"/>
				<FieldRef field="x255"/>
				<FieldRef field="x256"/>
				<FieldRef field="x257"/>
				<FieldRef field="x258"/>
				<FieldRef field="x259"/>
				<FieldRef field="x260"/>
				<FieldRef field="x261"/>
				<FieldRef field="x262"/>
				<FieldRef field="x263"/>
				<FieldRef field="x264"/>
				<FieldRef field="x265"/>
				<FieldRef field="x266"/>
				<FieldRef field="x267"/>
				<FieldRef field="x268"/>
				<FieldRef field="x269"/>
				<FieldRef field="x270"/>
				<FieldRef field="x271"/>
				<FieldRef field="x272"/>
				<FieldRef field="x273"/>
				<FieldRef field="x274"/>
				<FieldRef field="x275"/>
				<FieldRef field="x276"/>
				<FieldRef field="x277"/>
				<FieldRef field="x278"/>
				<FieldRef field="x279"/>
				<FieldRef field="x280"/>
				<FieldRef field="x281"/>
				<FieldRef field="x282"/>
				<FieldRef field="x283"/>
				<FieldRef field="x284"/>
				<FieldRef field="x285"/>
				<FieldRef field="x286"/>
				<FieldRef field="x287"/>
				<FieldRef field="x288"/>
				<FieldRef field="x289"/>
				<FieldRef field="x290"/>
				<FieldRef field="x291"/>
				<FieldRef field="x292"/>
				<FieldRef field="x293"/>
				<FieldRef field="x294"/>
				<FieldRef field="x295"/>
				<FieldRef field="x296"/>
				<FieldRef field="x297"/>
				<FieldRef field="x298"/>
				<FieldRef field="x299"/>
				<FieldRef field="x300"/>
				<FieldRef field="x301"/>
				<FieldRef field="x302"/>
				<FieldRef field="x303"/>
				<FieldRef field="x304"/>
				<FieldRef field="x305"/>
				<FieldRef field="x306"/>
				<FieldRef field="x307"/>
				<FieldRef field="x308"/>
				<FieldRef field="x309"/>
				<FieldRef field="x310"/>
				<FieldRef field="x311"/>
				<FieldRef field="x312"/>
				<FieldRef field="x313"/>
				<FieldRef field="x314"/>
				<FieldRef field="x315"/>
				<FieldRef field="x316"/>
				<FieldRef field="x317"/>
				<FieldRef field="x318"/>
				<FieldRef field="x319"/>
				<FieldRef field="x320"/>
				<FieldRef field="x321"/>
				<FieldRef field="x322"/>
				<FieldRef field="x323"/>
				<FieldRef field="x324"/>
				<FieldRef field="x325"/>
				<FieldRef field="x326"/>
				<FieldRef field="x327"/>
				<FieldRef field="x328"/>
				<FieldRef field="x329"/>
				<FieldRef field="x330"/>
				<FieldRef field="x331"/>
				<FieldRef field="x332"/>
				<FieldRef field="x333"/>
				<FieldRef field="x334"/>
				<FieldRef field="x335"/>
				<FieldRef field="x336"/>
				<FieldRef field="x338"/>
				<FieldRef field="x339"/>
				<FieldRef field="x340"/>
				<FieldRef field="x341"/>
				<FieldRef field="x342"/>
				<FieldRef field="x343"/>
				<FieldRef field="x344"/>
				<FieldRef field="x345"/>
				<FieldRef field="x346"/>
				<FieldRef field="x347"/>
				<FieldRef field="x348"/>
				<FieldRef field="x349"/>
				<FieldRef field="x350"/>
				<FieldRef field="x351"/>
				<FieldRef field="x352"/>
				<FieldRef field="x353"/>
				<FieldRef field="x354"/>
				<FieldRef field="x355"/>
				<FieldRef field="x356"/>
				<FieldRef field="x357"/>
				<FieldRef field="x358"/>
				<FieldRef field="x359"/>
				<FieldRef field="x360"/>
				<FieldRef field="x361"/>
				<FieldRef field="x362"/>
				<FieldRef field="x363"/>
				<FieldRef field="x364"/>
				<FieldRef field="x366"/>
				<FieldRef field="x367"/>
				<FieldRef field="x368"/>
				<FieldRef field="x369"/>
				<FieldRef field="x370"/>
				<FieldRef field="x371"/>
				<FieldRef field="x372"/>
				<FieldRef field="x373"/>
				<FieldRef field="x374"/>
				<FieldRef field="x375"/>
				<FieldRef field="x376"/>
				<FieldRef field="x377"/>
				<FieldRef field="x378"/>
				<FieldRef field="x379"/>
				<FieldRef field="x380"/>
				<FieldRef field="x381"/>
				<FieldRef field="x382"/>
				<FieldRef field="x383"/>
				<FieldRef field="x384"/>
				<FieldRef field="x385"/>
				<FieldRef field="x386"/>
				<FieldRef field="x387"/>
				<FieldRef field="x388"/>
				<FieldRef field="x389"/>
				<FieldRef field="x390"/>
				<FieldRef field="x391"/>
				<FieldRef field="x394"/>
				<FieldRef field="x395"/>
				<FieldRef field="x396"/>
				<FieldRef field="x397"/>
				<FieldRef field="x398"/>
				<FieldRef field="x399"/>
				<FieldRef field="x400"/>
				<FieldRef field="x401"/>
				<FieldRef field="x402"/>
				<FieldRef field="x403"/>
				<FieldRef field="x404"/>
				<FieldRef field="x405"/>
				<FieldRef field="x406"/>
				<FieldRef field="x407"/>
				<FieldRef field="x408"/>
				<FieldRef field="x409"/>
				<FieldRef field="x410"/>
				<FieldRef field="x411"/>
				<FieldRef field="x412"/>
				<FieldRef field="x413"/>
				<FieldRef field="x414"/>
				<FieldRef field="x415"/>
				<FieldRef field="x416"/>
				<FieldRef field="x417"/>
				<FieldRef field="x418"/>
				<FieldRef field="x419"/>
				<FieldRef field="x421"/>
				<FieldRef field="x422"/>
				<FieldRef field="x423"/>
				<FieldRef field="x424"/>
				<FieldRef field="x425"/>
				<FieldRef field="x426"/>
				<FieldRef field="x427"/>
				<FieldRef field="x428"/>
				<FieldRef field="x429"/>
				<FieldRef field="x430"/>
				<FieldRef field="x431"/>
				<FieldRef field="x432"/>
				<FieldRef field="x433"/>
				<FieldRef field="x434"/>
				<FieldRef field="x435"/>
				<FieldRef field="x436"/>
				<FieldRef field="x437"/>
				<FieldRef field="x438"/>
				<FieldRef field="x439"/>
				<FieldRef field="x440"/>
				<FieldRef field="x441"/>
				<FieldRef field="x442"/>
				<FieldRef field="x443"/>
				<FieldRef field="x444"/>
				<FieldRef field="x445"/>
				<FieldRef field="x446"/>
				<FieldRef field="x447"/>
				<FieldRef field="x448"/>
				<FieldRef field="x449"/>
				<FieldRef field="x450"/>
				<FieldRef field="x451"/>
				<FieldRef field="x452"/>
				<FieldRef field="x453"/>
				<FieldRef field="x454"/>
				<FieldRef field="x455"/>
				<FieldRef field="x456"/>
				<FieldRef field="x457"/>
				<FieldRef field="x458"/>
				<FieldRef field="x459"/>
				<FieldRef field="x460"/>
				<FieldRef field="x461"/>
				<FieldRef field="x462"/>
				<FieldRef field="x463"/>
				<FieldRef field="x464"/>
				<FieldRef field="x465"/>
				<FieldRef field="x466"/>
				<FieldRef field="x467"/>
				<FieldRef field="x468"/>
				<FieldRef field="x469"/>
				<FieldRef field="x470"/>
				<FieldRef field="x471"/>
				<FieldRef field="x472"/>
				<FieldRef field="x473"/>
				<FieldRef field="x474"/>
				<FieldRef field="x475"/>
				<FieldRef field="x476"/>
				<FieldRef field="x478"/>
				<FieldRef field="x479"/>
				<FieldRef field="x480"/>
				<FieldRef field="x481"/>
				<FieldRef field="x482"/>
				<FieldRef field="x483"/>
				<FieldRef field="x484"/>
				<FieldRef field="x485"/>
				<FieldRef field="x486"/>
				<FieldRef field="x487"/>
				<FieldRef field="x488"/>
				<FieldRef field="x489"/>
				<FieldRef field="x490"/>
				<FieldRef field="x491"/>
				<FieldRef field="x492"/>
				<FieldRef field="x493"/>
				<FieldRef field="x494"/>
				<FieldRef field="x495"/>
				<FieldRef field="x496"/>
				<FieldRef field="x497"/>
				<FieldRef field="x498"/>
				<FieldRef field="x499"/>
				<FieldRef field="x500"/>
				<FieldRef field="x501"/>
				<FieldRef field="x502"/>
				<FieldRef field="x503"/>
				<FieldRef field="x504"/>
				<FieldRef field="x505"/>
				<FieldRef field="x506"/>
				<FieldRef field="x507"/>
				<FieldRef field="x508"/>
				<FieldRef field="x509"/>
				<FieldRef field="x510"/>
				<FieldRef field="x511"/>
				<FieldRef field="x512"/>
				<FieldRef field="x513"/>
				<FieldRef field="x514"/>
				<FieldRef field="x515"/>
				<FieldRef field="x516"/>
				<FieldRef field="x517"/>
				<FieldRef field="x518"/>
				<FieldRef field="x519"/>
				<FieldRef field="x520"/>
				<FieldRef field="x521"/>
				<FieldRef field="x522"/>
				<FieldRef field="x523"/>
				<FieldRef field="x524"/>
				<FieldRef field="x525"/>
				<FieldRef field="x526"/>
				<FieldRef field="x527"/>
				<FieldRef field="x528"/>
				<FieldRef field="x529"/>
				<FieldRef field="x530"/>
				<FieldRef field="x531"/>
				<FieldRef field="x532"/>
				<FieldRef field="x534"/>
				<FieldRef field="x535"/>
				<FieldRef field="x536"/>
				<FieldRef field="x537"/>
				<FieldRef field="x538"/>
				<FieldRef field="x539"/>
				<FieldRef field="x540"/>
				<FieldRef field="x541"/>
				<FieldRef field="x542"/>
				<FieldRef field="x543"/>
				<FieldRef field="x544"/>
				<FieldRef field="x545"/>
				<FieldRef field="x546"/>
				<FieldRef field="x547"/>
				<FieldRef field="x548"/>
				<FieldRef field="x549"/>
				<FieldRef field="x550"/>
				<FieldRef field="x551"/>
				<FieldRef field="x552"/>
				<FieldRef field="x553"/>
				<FieldRef field="x554"/>
				<FieldRef field="x555"/>
				<FieldRef field="x556"/>
				<FieldRef field="x557"/>
				<FieldRef field="x558"/>
				<FieldRef field="x559"/>
				<FieldRef field="x560"/>
				<FieldRef field="x562"/>
				<FieldRef field="x563"/>
				<FieldRef field="x564"/>
				<FieldRef field="x565"/>
				<FieldRef field="x566"/>
				<FieldRef field="x567"/>
				<FieldRef field="x568"/>
				<FieldRef field="x569"/>
				<FieldRef field="x570"/>
				<FieldRef field="x571"/>
				<FieldRef field="x572"/>
				<FieldRef field="x573"/>
				<FieldRef field="x574"/>
				<FieldRef field="x575"/>
				<FieldRef field="x576"/>
				<FieldRef field="x577"/>
				<FieldRef field="x578"/>
				<FieldRef field="x579"/>
				<FieldRef field="x580"/>
				<FieldRef field="x581"/>
				<FieldRef field="x582"/>
				<FieldRef field="x583"/>
				<FieldRef field="x584"/>
				<FieldRef field="x585"/>
				<FieldRef field="x586"/>
				<FieldRef field="x587"/>
				<FieldRef field="x588"/>
				<FieldRef field="x590"/>
				<FieldRef field="x591"/>
				<FieldRef field="x592"/>
				<FieldRef field="x593"/>
				<FieldRef field="x594"/>
				<FieldRef field="x595"/>
				<FieldRef field="x596"/>
				<FieldRef field="x597"/>
				<FieldRef field="x598"/>
				<FieldRef field="x599"/>
				<FieldRef field="x600"/>
				<FieldRef field="x601"/>
				<FieldRef field="x602"/>
				<FieldRef field="x603"/>
				<FieldRef field="x604"/>
				<FieldRef field="x605"/>
				<FieldRef field="x606"/>
				<FieldRef field="x607"/>
				<FieldRef field="x608"/>
				<FieldRef field="x609"/>
				<FieldRef field="x610"/>
				<FieldRef field="x611"/>
				<FieldRef field="x612"/>
				<FieldRef field="x613"/>
				<FieldRef field="x614"/>
				<FieldRef field="x615"/>
				<FieldRef field="x616"/>
				<FieldRef field="x619"/>
				<FieldRef field="x620"/>
				<FieldRef field="x621"/>
				<FieldRef field="x622"/>
				<FieldRef field="x623"/>
				<FieldRef field="x624"/>
				<FieldRef field="x625"/>
				<FieldRef field="x626"/>
				<FieldRef field="x627"/>
				<FieldRef field="x628"/>
				<FieldRef field="x629"/>
				<FieldRef field="x630"/>
				<FieldRef field="x631"/>
				<FieldRef field="x632"/>
				<FieldRef field="x633"/>
				<FieldRef field="x634"/>
				<FieldRef field="x635"/>
				<FieldRef field="x636"/>
				<FieldRef field="x637"/>
				<FieldRef field="x638"/>
				<FieldRef field="x639"/>
				<FieldRef field="x640"/>
				<FieldRef field="x641"/>
				<FieldRef field="x642"/>
				<FieldRef field="x643"/>
				<FieldRef field="x644"/>
				<FieldRef field="x647"/>
				<FieldRef field="x648"/>
				<FieldRef field="x649"/>
				<FieldRef field="x650"/>
				<FieldRef field="x651"/>
				<FieldRef field="x652"/>
				<FieldRef field="x653"/>
				<FieldRef field="x654"/>
				<FieldRef field="x655"/>
				<FieldRef field="x656"/>
				<FieldRef field="x657"/>
				<FieldRef field="x658"/>
				<FieldRef field="x659"/>
				<FieldRef field="x660"/>
				<FieldRef field="x661"/>
				<FieldRef field="x662"/>
				<FieldRef field="x663"/>
				<FieldRef field="x664"/>
				<FieldRef field="x665"/>
				<FieldRef field="x666"/>
				<FieldRef field="x667"/>
				<FieldRef field="x668"/>
				<FieldRef field="x669"/>
				<FieldRef field="x670"/>
				<FieldRef field="x671"/>
				<FieldRef field="x675"/>
				<FieldRef field="x676"/>
				<FieldRef field="x677"/>
				<FieldRef field="x678"/>
				<FieldRef field="x679"/>
				<FieldRef field="x680"/>
				<FieldRef field="x681"/>
				<FieldRef field="x682"/>
				<FieldRef field="x683"/>
				<FieldRef field="x684"/>
				<FieldRef field="x685"/>
				<FieldRef field="x686"/>
				<FieldRef field="x687"/>
				<FieldRef field="x688"/>
				<FieldRef field="x689"/>
				<FieldRef field="x690"/>
				<FieldRef field="x691"/>
				<FieldRef field="x692"/>
				<FieldRef field="x693"/>
				<FieldRef field="x694"/>
				<FieldRef field="x695"/>
				<FieldRef field="x696"/>
				<FieldRef field="x697"/>
				<FieldRef field="x698"/>
				<FieldRef field="x699"/>
				<FieldRef field="x704"/>
				<FieldRef field="x705"/>
				<FieldRef field="x706"/>
				<FieldRef field="x707"/>
				<FieldRef field="x708"/>
				<FieldRef field="x709"/>
				<FieldRef field="x710"/>
				<FieldRef field="x711"/>
				<FieldRef field="x712"/>
				<FieldRef field="x713"/>
				<FieldRef field="x714"/>
				<FieldRef field="x715"/>
				<FieldRef field="x716"/>
				<FieldRef field="x717"/>
				<FieldRef field="x718"/>
				<FieldRef field="x719"/>
				<FieldRef field="x720"/>
				<FieldRef field="x721"/>
				<FieldRef field="x722"/>
				<FieldRef field="x723"/>
				<FieldRef field="x724"/>
				<FieldRef field="x725"/>
				<FieldRef field="x726"/>
				<FieldRef field="x727"/>
				<FieldRef field="x732"/>
				<FieldRef field="x733"/>
				<FieldRef field="x734"/>
				<FieldRef field="x735"/>
				<FieldRef field="x736"/>
				<FieldRef field="x737"/>
				<FieldRef field="x738"/>
				<FieldRef field="x739"/>
				<FieldRef field="x740"/>
				<FieldRef field="x741"/>
				<FieldRef field="x742"/>
				<FieldRef field="x743"/>
				<FieldRef field="x744"/>
				<FieldRef field="x745"/>
				<FieldRef field="x746"/>
				<FieldRef field="x747"/>
				<FieldRef field="x748"/>
				<FieldRef field="x749"/>
				<FieldRef field="x750"/>
				<FieldRef field="x751"/>
				<FieldRef field="x752"/>
				<FieldRef field="x761"/>
				<FieldRef field="x762"/>
				<FieldRef field="x763"/>
				<FieldRef field="x764"/>
				<FieldRef field="x765"/>
				<FieldRef field="x766"/>
				<FieldRef field="x767"/>
				<FieldRef field="x768"/>
				<FieldRef field="x769"/>
				<FieldRef field="x770"/>
				<FieldRef field="x771"/>
				<FieldRef field="x772"/>
				<FieldRef field="x773"/>
				<FieldRef field="x774"/>
				<FieldRef field="x775"/>
				<FieldRef field="x776"/>
				<FieldRef field="x777"/>
				<FieldRef field="x778"/>
				<FieldRef field="x779"/>
				<FieldRef field="x780"/>
			</VectorFields>
			<VectorInstance id="0">
				<Array type="real">8.955039374995977E-4 0.001960844805580564 0.0 0.0 6.175889575388283E-5 0.0031111043062992394 0.005048789447755553 0.00436944178363774 0.0014822134544374421 0.0 0.0 0.0012814970104955137 0.0019994441681774333 0.0017292489210376516 2.8563487285282463E-4 0.0 0.0 0.0 0.0 0.0 0.0 0.0 0.0 0.0 2.2387599165085703E-4 0.0035434164747130126 0.0075191453797742724 0.00897047897160519 0.005828495268360712 0.004794034015503712 0.005650938706821762 0.007434226601617411 0.0038522108807228506 0.004130125773372129 0.003265501305577345 0.001960844747372903 0.001960844747372903 1.4667735376860946E-4 0.0012892168888356537 0.0013664154685102403 2.315959136467427E-5 0.0 0.0 0.0 0.0 0.0 0.0 9.881422884063795E-4 0.004014327932964079 0.008183053359971382 0.010143898020032793 0.009819663755479269 0.011587512330152094 0.016674900834914297 0.017717082067974843 0.01673666000715457 0.015655879251426086 0.010800086034578271 0.007264389583724551 0.003095664462307468 0.0022773591190343723 0.0074573863530531526 0.008314290607813746 0.004106965992832556 0.0012120182072976604 0.0 0.0 0.0 0.0 0.0 0.0010730607464211062 0.007318428761209361 0.01511548833514098 0.021376296805101447 0.024572319322032854 0.0326086951099569 0.04935307666892186 0.058501112391240895 0.06306354704429395 0.06595849381119478 0.04628829025023151 0.027042674788390286 0.021090661219204776 0.014876172805088572 0.018836462273611687 0.01723845093511045 0.010923603942501359 0.006052371361874975 0.0 0.0 0.0 0.0 0.0 0.0 0.0010576210188446566 0.0038985299615887925 0.013710474144318141 0.025521861301967874 0.033851592044811696 0.05258769654028583 0.07799375944887288 0.1155894835392246 0.12442100237240084 0.11316544977307785 0.08843873196747154 0.07129292158060707 0.05677958037995268 0.041633212196757086 0.02823153317149263 0.029065278053167276 0.025815217260969803 0.021901246494962834 0.011278717458480969 0.0012042983289575204 5.249505920801312E-4 0.0 0.0 0.0 0.0 5.326704558683559E-4 0.006090970724471845 0.015208127733785659 0.023869811760960147 0.044551319821039215 0.05552124291716609 0.09005990365403704 0.1381392023031367 0.1734189676499227 0.15858910977840424 0.11507997239823453 0.0823554812814109 0.07355483830906451 0.06155817517719697 0.05779088367125951 0.048503891099244356 0.04728415299905464 0.04204236484656576 0.03179810913570691 0.015980112802935764 0.005936573288636282 0.0028023097256664187 0.0 0.0 0.0 0.0 0.0 0.004770874307723716 0.015640439523849636 0.03470849596487824 0.054494502328452654 0.08362153990310617 0.11192254888010211 0.14277883639442734 0.20978723271400668 0.2706043060607044 0.27200160587381106 0.2164726337941829 0.15884387177356984 0.13427154887176584 0.1246603236941155 0.12221312998735812 0.12478383806592319 0.12221313074405771 0.1139991973323049 0.10588562076736707 0.07631854998180643 0.03981904381362256 0.018604865836095996 0.005303544792695902 9.34103227336891E-4 0.0 0.0 0.0 0.004871232478762977 0.02857120741100516 0.05225574220821727 0.09968657116405666 0.14781990949995816 0.1892369634588249 0.24104495217034128 0.3141829138767207 0.39458526723319665 0.45854432550549973 0.44108201474591624 0.3830672367621446 0.34304749059083406 0.3408395950682461 0.3336987253424013 0.323670632642461 0.3256855078652734 0.32675084871880244 0.294149886482046 0.22661653721297625 0.16077383495576214 0.08073431187949609 0.04225852302624844 0.01572535786544904 0.0032963809790089726 0.0 0.0 0.0 0.012961647633346729 0.046558485279092565 0.0937808763992507 0.15614191356871743 0.21632595190021675 0.2810492628632346 0.3691020247497363 0.48208991005958524 0.577322124139755 0.6167783423879882 0.5825947950652335 0.541980605237768 0.5398962159670191 0.5419960203435039 0.5396491984138265 0.5238466489536222 0.5272356400673743 0.5453155696886824 0.4929054264066508 0.38708157802466303 0.2656558683665935 0.1522742636152543 0.0791980597859947 0.034530941367847845 0.011896306081325747 0.0025629940209910274 0.0 7.719863788224757E-6 0.016597701716818847 0.051205842071794905 0.11325808640685864 0.17749505190295167 0.2569401445944095 0.343209602026036 0.46511393184482586 0.5771213917178102 0.653918600131874 0.677163096042932 0.6154659361054655 0.5753458447434241 0.5814599712903146 0.5826796944602393 0.5837296117970254 0.5967839065706357 0.6244518680323381 0.6569679227541201 0.6204375419620192 0.5016520200006198 0.3424453230545623 0.21207231550943106 0.09822751789761242 0.0319602269155439 0.00846096794703044 0.0027559907030081376 0.0 9.881422884063795E-4 0.00785109902790282 0.045091710693668574 0.09624351553793531 0.16034923847473692 0.23593440813419875 0.33263339655241 0.45866784830286633 0.5582695083867293 0.6015238841937389 0.5862694386160001 0.4814877546596108 0.43387166583852377 0.41046503715915605 0.4036175142682623 0.40584082576970104 0.4127501092007151 0.4800441571424017 0.6157515753438929 0.6560338264389429 0.5394716385344509 0.36420763304340653 0.2146661867009243 0.09297801164211705 0.021484374126885086 0.0028409090300556272 8.569046476623043E-4 0.0 0.003968008895753883 0.028957200833247043 0.061280259367777035 0.12480699557636399 0.20086307858582586 0.29381793159700464 0.4012629649514565 0.48087788476550486 0.49395533466304187 0.4085659484844655 0.3004647270718124 0.23148004253744148 0.20175086132076103 0.18433485510468017 0.1776726132229669 0.19042581814574078 0.3063472486974206 0.5365072010463336 0.6611829813482473 0.5444277740461985 0.3441205521230586 0.1963701198110357 0.08833065492217429 0.01956984835851472 4.631917108781636E-4 0.0 0.0 0.0010035819868789986 0.007920577801996842 0.03474709633155726 0.09025290074350778 0.16087419392715674 0.2576658180914819 0.343039755767677 0.40750833933998365 0.39343501221446786 0.28570435017172713 0.1764219920441974 0.11495645534887444 0.07975388706836384 0.05961276912421454 0.050804408034309745 0.07533812664041761 0.24065896388492547 0.5234606462763622 0.6607815593888517 0.5322921727201901 0.3041085038421443 0.17116477122181095 0.09059257557964884 0.027050395307014696 0.0 0.0 0.0 9.572628187015653E-4 0.017145812511444092 0.06048511603148654 0.1377686431806069 0.2317579543159809 0.30879445491882507 0.3541409186000237 0.31753333802043926 0.19659399476950057 0.10751451141550206 0.06057003237947356 0.03625246972660534 0.03026957585825585 0.027891858146176673 0.09049993657390587 0.3013525151036447 0.5585011016519275 0.667312528428738 0.48825805996602867 0.2537518439348787 0.14825994474813342 0.07925981600419618 0.031188240187475458 0.0 0.0 5.403903196565807E-5 0.0 0.0 0.011101160125690512 0.0454622640972957 0.13154643528105225 0.21871911245398223 0.27221775460930075 0.29539277755247895 0.2600744134251727 0.17491662070096936 0.1040482914831955 0.06431416532723233 0.047924900020007044 0.04935307386040222 0.05997560513787903 0.16605421699932776 0.401502278065891 0.6143697279912885 0.6507997678854736 0.44510404688480776 0.22260220944008324 0.1314306405838579 0.0791517370234942 0.03307188629696611 3.85993072995916E-4 0.0 0.0 3.087944642174989E-4 0.0 1.0035820014309138E-4 0.01085412515385542 0.05110548208176624 0.134202073328197 0.20443736926245037 0.22828401740116533 0.23257627035491168 0.23330965641071089 0.18857305459096096 0.13183979368477594 0.10423356795217842 0.08773622842272744 0.08683300035772845 0.11429254787799437 0.26564043342659716 0.5092947078373982 0.6519191544211935 0.6021260243433062 0.3801877458608942 0.19421627050905954 0.12159553880337626 0.07704421519883908 0.025313425387139432 0.0012197380710858852 0.0 0.0 0.0 0.0 0.007225790453958325 0.05522788787493482 0.12620429634989705 0.18082231139123905 0.19654767370957416 0.21373980201315135 0.22159090437344275 0.1942162773484597 0.15711462144099642 0.13420206794398837 0.13994565031316597 0.1501204267842695 0.19924190228630323 0.3831289962399751 0.5822242520807777 0.6696053221530747 0.5429224038525717 0.32744565152097493 0.17203711174079217 0.10204112708743196 0.053668478241888806 0.016373826802009717 0.0019454050197964534 0.0 0.0 0.0 0.0 5.326704122126102E-4 0.00846096794703044 0.047253273223759606 0.09652142698178068 0.13492774381302297 0.1509696081484435 0.17892322959960438 0.20568027028639335 0.21075993811246008 0.18396429743734188 0.1647264027997153 0.17243854500702582 0.19468718602729496 0.2689213769190246 0.4638401517877355 0.6335535743273795 0.665081511484459 0.4737370203802129 0.25761948902800214 0.12964735047717113 0.0673094725352712 0.03792767871345859 0.012498455704189837 0.001821887242840603 0.0 0.0 0.0 9.418230329174548E-4 0.007495985380955972 0.026818799058673903 0.06975666747894138 0.09270009408646729 0.11471714075014461 0.13984529400477186 0.17553421307820827 0.19195435570145492 0.17772664377116598 0.17604372420464642 0.1901942302210955 0.2199620059109293 0.3176877351361327 0.5139729435904883 0.6564970044710208 0.6047430698090466 0.37454451220401097 0.18353198675322346 0.08544342881941702 0.04078402867889963 0.018025876313913614 0.004670516209444031 3.85993072995916E-4 0.0 0.0 0.0 0.0 0.005473381679621525 0.012251420135726221 0.044296565756667405 0.05792983835272025 0.07104588422225788 0.1010993071104167 0.142686202947516 0.1551923740771599 0.16918076416186523 0.16629353746247943 0.18215784724452533 0.2268558496143669 0.3495707690890413 0.546535323257558 0.6407793749676785 0.5131777824135497 0.2856811866950011 0.11867742650792934 0.04746942697966006 0.017323369494988583 0.007241229686769657 9.804224246181548E-4 0.0 0.0 0.0 0.0 0.0 0.003960289075621404 0.004655076380004175 0.021044342414825223 0.041671812228742056 0.052155382800265215 0.07181015236710664 0.10106842638924718 0.12146429702988826 0.14426876841753256 0.153694724504021 0.1685014197428245 0.24302123760571703 0.38937438518041745 0.5597825924342033 0.5707370673044352 0.3977812950324733 0.2000447695463663 0.07729125232435763 0.02799221736495383 0.009688426071079448 0.002231039892649278 9.186635288642719E-4 0.0 0.0 0.0 0.0 0.0023622775624971837 0.005218626116402447 0.009889142485917546 0.02183948839956429 0.030462572729447857 0.03543416381580755 0.06394361426646356 0.10012660226493608 0.13631731749046594 0.15553204194293357 0.20791131287114695 0.30635497014736757 0.4353384258429287 0.511726449476555 0.4594552619382739 0.2930690904177027 0.1367959442868596 0.0492449966550339 0.018133954508812167 0.0035665759060066193 9.263833635486662E-5 5.635498673655093E-4 0.0 0.0 0.0 0.0 0.0 0.0029798664763802662 0.0050487893604440615 0.007202630658866838 0.009202074958011508 0.017269330011913553 0.04060647160804365 0.06673048276570626 0.09374227777880151 0.14050919719738886 0.2157932794361841 0.3009356366965221 0.395573411587975 0.40652018756372854 0.3345093133393675 0.20321763536776416 0.09798819820571225 0.0315279150090646 0.008136734017170966 5.403902905527502E-4 0.0 0.0 0.0 0.0 0.0 0.0 0.0029103876586304978 0.0036437744711292908 0.0038830902776680887 0.005234065931290388 0.015100049233296886 0.027073554403614253 0.048465289946761914 0.0669697960402118 0.10318366828141734 0.1665560112160165 0.2293030372238718 0.29612616187660024 0.30424745539494324 0.24641798010270577 0.1465692886558827 0.06461524192127399 0.014204545324901119 0.006199048613780178 0.0 0.0 0.0 0.0 0.0 0.0 2.1615611331071705E-4 0.0010267415782436728 0.0010653408680809662 0.0052340659603942186 0.012205101229483262 0.01652822340838611 0.027073553661466576 0.044134448675322346 0.08250215773296077 0.1367419077141676 0.19076549883175176 0.22032484618830495 0.22726499855343718 0.18007348892570008 0.10088315143366344 0.04625741037307307 0.011008522415068 0.004608756993548013 0.001474493503337726 4.940711223753169E-4 0.0 0.0 0.0 0.0 0.0 0.0 0.002655632357345894 0.005589179898379371 0.01002809997589793 0.006338006394798867 0.011023961764294654 0.028416809349437244 0.055166130550787784 0.094969736848725 0.13248826510971412 0.14295638973999303 0.1333992026047781 0.10139266068290453 0.06489315496583004 0.03217638222849928 0.004068367125000805 0.003890810228767805 0.0025707138993311673 9.881422447506338E-4 0.0 0.0 1.466773683205247E-4 0.0017601284343982115 0.003913969703717157 8.183052850654349E-4 0.0024394762294832617 0.010923603869741783 0.027984497268334962 0.03780416121298913 0.05040297459345311 0.053128087558434345 0.04279891178885009 0.0283627711905865 0.021384015621151775 0.009618947675335221 9.495429403614253E-4 0.0019376851560082287 0.001412734665791504 0.0</Array>
			</VectorInstance>
			<VectorInstance id="1">
				<REAL-SparseArray n="696">
					<Indices>77 78 80 81 102 103 105 106 107 128 129 130 131 132 133 151 152 153 154 155 156 157 158 159 160 161 178 179 180 181 182 183 184 185 186 187 188 189 206 207 213 214 215 216 217 234 235 242 243 244 245 270 271 272 273 274 297 298 299 300 301 324 325 326 327 328 350 351 352 353 354 355 377 378 379 380 381 382 405 406 407 409 410 431 432 433 434 435 436 437 459 460 461 462 463 464 465 486 487 488 489 490 491 492 513 514 515 516 517 518 519 540 541 542 544 545 566 567 568 570 571 592 593 594 596 597 618 619 621 622 645 646 669 670</Indices>
